{"learner":{"attributes":{"scikit_learn":"{\"_estimator_type\": \"regressor\"}"},"feature_names":["lag1","dow","hour"],"feature_types":["float","int","int"],"gradient_booster":{"model":{"gbtree_model_param":{"num_parallel_tree":"1","num_trees":"600"},"iteration_indptr":[0,1,2,3,4,5,6,7,8,9,10,11,12,13,14,15,16,17,18,19,20,21,22,23,24,25,26,27,28,29,30,31,32,33,34,35,36,37,38,39,40,41,42,43,44,45,46,47,48,49,50,51,52,53,54,55,56,57,58,59,60,61,62,63,64,65,66,67,68,69,70,71,72,73,74,75,76,77,78,79,80,81,82,83,84,85,86,87,88,89,90,91,92,93,94,95,96,97,98,99,100,101,102,103,104,105,106,107,108,109,110,111,112,113,114,115,116,117,118,119,120,121,122,123,124,125,126,127,128,129,130,131,132,133,134,135,136,137,138,139,140,141,142,143,144,145,146,147,148,149,150,151,152,153,154,155,156,157,158,159,160,161,162,163,164,165,166,167,168,169,170,171,172,173,174,175,176,177,178,179,180,181,182,183,184,185,186,187,188,189,190,191,192,193,194,195,196,197,198,199,200,201,202,203,204,205,206,207,208,209,210,211,212,213,214,215,216,217,218,219,220,221,222,223,224,225,226,227,228,229,230,231,232,233,234,235,236,237,238,239,240,241,242,243,244,245,246,247,248,249,250,251,252,253,254,255,256,257,258,259,260,261,262,263,264,265,266,267,268,269,270,271,272,273,274,275,276,277,278,279,280,281,282,283,284,285,286,287,288,289,290,291,292,293,294,295,296,297,298,299,300,301,302,303,304,305,306,307,308,309,310,311,312,313,314,315,316,317,318,319,320,321,322,323,324,325,326,327,328,329,330,331,332,333,334,335,336,337,338,339,340,341,342,343,344,345,346,347,348,349,350,351,352,353,354,355,356,357,358,359,360,361,362,363,364,365,366,367,368,369,370,371,372,373,374,375,376,377,378,379,380,381,382,383,384,385,386,387,388,389,390,391,392,393,394,395,396,397,398,399,400,401,402,403,404,405,406,407,408,409,410,411,412,413,414,415,416,417,418,419,420,421,422,423,424,425,426,427,428,429,430,431,432,433,434,435,436,437,438,439,440,441,442,443,444,445,446,447,448,449,450,451,452,453,454,455,456,457,458,459,460,461,462,463,464,465,466,467,468,469,470,471,472,473,474,475,476,477,478,479,480,481,482,483,484,485,486,487,488,489,490,491,492,493,494,495,496,497,498,499,500,501,502,503,504,505,506,507,508,509,510,511,512,513,514,515,516,517,518,519,520,521,522,523,524,525,526,527,528,529,530,531,532,533,534,535,536,537,538,539,540,541,542,543,544,545,546,547,548,549,550,551,552,553,554,555,556,557,558,559,560,561,562,563,564,565,566,567,568,569,570,571,572,573,574,575,576,577,578,579,580,581,582,583,584,585,586,587,588,589,590,591,592,593,594,595,596,597,598,599,600],"tree_info":[0,0,0,0,0,0,0,0,0,0,0,0,0,0,0,0,0,0,0,0,0,0,0,0,0,0,0,0,0,0,0,0,0,0,0,0,0,0,0,0,0,0,0,0,0,0,0,0,0,0,0,0,0,0,0,0,0,0,0,0,0,0,0,0,0,0,0,0,0,0,0,0,0,0,0,0,0,0,0,0,0,0,0,0,0,0,0,0,0,0,0,0,0,0,0,0,0,0,0,0,0,0,0,0,0,0,0,0,0,0,0,0,0,0,0,0,0,0,0,0,0,0,0,0,0,0,0,0,0,0,0,0,0,0,0,0,0,0,0,0,0,0,0,0,0,0,0,0,0,0,0,0,0,0,0,0,0,0,0,0,0,0,0,0,0,0,0,0,0,0,0,0,0,0,0,0,0,0,0,0,0,0,0,0,0,0,0,0,0,0,0,0,0,0,0,0,0,0,0,0,0,0,0,0,0,0,0,0,0,0,0,0,0,0,0,0,0,0,0,0,0,0,0,0,0,0,0,0,0,0,0,0,0,0,0,0,0,0,0,0,0,0,0,0,0,0,0,0,0,0,0,0,0,0,0,0,0,0,0,0,0,0,0,0,0,0,0,0,0,0,0,0,0,0,0,0,0,0,0,0,0,0,0,0,0,0,0,0,0,0,0,0,0,0,0,0,0,0,0,0,0,0,0,0,0,0,0,0,0,0,0,0,0,0,0,0,0,0,0,0,0,0,0,0,0,0,0,0,0,0,0,0,0,0,0,0,0,0,0,0,0,0,0,0,0,0,0,0,0,0,0,0,0,0,0,0,0,0,0,0,0,0,0,0,0,0,0,0,0,0,0,0,0,0,0,0,0,0,0,0,0,0,0,0,0,0,0,0,0,0,0,0,0,0,0,0,0,0,0,0,0,0,0,0,0,0,0,0,0,0,0,0,0,0,0,0,0,0,0,0,0,0,0,0,0,0,0,0,0,0,0,0,0,0,0,0,0,0,0,0,0,0,0,0,0,0,0,0,0,0,0,0,0,0,0,0,0,0,0,0,0,0,0,0,0,0,0,0,0,0,0,0,0,0,0,0,0,0,0,0,0,0,0,0,0,0,0,0,0,0,0,0,0,0,0,0,0,0,0,0,0,0,0,0,0,0,0,0,0,0,0,0,0,0,0,0,0,0,0,0,0,0,0,0,0,0,0,0,0,0,0,0,0,0,0,0,0,0,0,0,0,0,0,0,0,0,0,0,0,0,0,0,0,0,0,0,0,0,0,0,0,0,0,0,0,0,0,0,0,0,0,0,0,0,0,0,0,0,0,0,0,0,0,0,0,0,0,0,0,0,0,0,0,0,0,0,0,0,0,0],"trees":[{"base_weights":[-1.5942019E-6,-3.6531434E0,2.6568314E1,1.1463329E1,4.9512817E1,1.4848177E0,3.196025E-1,2.8410215E0,-7.456207E-3],"categories":[],"categories_nodes":[],"categories_segments":[],"categories_sizes":[],"default_left":[0,0,0,0,0,0,0,0,0],"id":0,"left_children":[1,-1,3,5,7,-1,-1,-1,-1],"loss_changes":[2.6205622E5,0E0,3.3743484E4,5.4505293E3,1.4161969E4,0E0,0E0,0E0,0E0],"parents":[2147483647,0,0,2,2,3,3,4,4],"right_children":[2,-1,4,6,8,-1,-1,-1,-1],"split_conditions":[6E0,-3.6531434E0,1.67E2,8E0,2.1E1,1.4848177E0,3.196025E-1,2.8410215E0,-7.456207E-3],"split_indices":[2,0,0,2,2,0,0,0,0],"split_type":[0,0,0,0,0,0,0,0,0],"sum_hessian":[1.33E2,3.5E1,9.8E1,6E1,3.8E1,1.2E1,4.8E1,3.3E1,5E0],"tree_param":{"num_deleted":"0","num_feature":"3","num_nodes":"9","size_leaf_vector":"1"}},{"base_weights":[7.3519466E-3,-3.47556E0,2.528675E1,1.0919748E1,4.7109837E1,1.4162878E0,3.0394885E-1,2.7031486E0,-7.1453094E-3],"categories":[],"categories_nodes":[],"categories_segments":[],"categories_sizes":[],"default_left":[0,0,0,0,0,0,0,0,0],"id":1,"left_children":[1,-1,3,5,7,-1,-1,-1,-1],"loss_changes":[2.372476E5,0E0,3.0525273E4,4.9675776E3,1.2821359E4,0E0,0E0,0E0,0E0],"parents":[2147483647,0,0,2,2,3,3,4,4],"right_children":[2,-1,4,6,8,-1,-1,-1,-1],"split_conditions":[6E0,-3.47556E0,1.67E2,8E0,2.1E1,1.4162878E0,3.0394885E-1,2.7031486E0,-7.1453094E-3],"split_indices":[2,0,0,2,2,0,0,0,0],"split_type":[0,0,0,0,0,0,0,0,0],"sum_hessian":[1.33E2,3.5E1,9.8E1,6E1,3.8E1,1.2E1,4.8E1,3.3E1,5E0],"tree_param":{"num_deleted":"0","num_feature":"3","num_nodes":"9","size_leaf_vector":"1"}},{"base_weights":[1.400085E-2,-3.306609E0,2.4067017E1,1.0401957E1,4.4823467E1,1.3509206E0,2.8906128E-1,2.5719662E0,-6.847763E-3],"categories":[],"categories_nodes":[],"categories_segments":[],"categories_sizes":[],"default_left":[0,0,0,0,0,0,0,0,0],"id":2,"left_children":[1,-1,3,5,7,-1,-1,-1,-1],"loss_changes":[2.1478761E5,0E0,2.7613926E4,4.527391E3,1.1607656E4,0E0,0E0,0E0,0E0],"parents":[2147483647,0,0,2,2,3,3,4,4],"right_children":[2,-1,4,6,8,-1,-1,-1,-1],"split_conditions":[6E0,-3.306609E0,1.67E2,8E0,2.1E1,1.3509206E0,2.8906128E-1,2.5719662E0,-6.847763E-3],"split_indices":[2,0,0,2,2,0,0,0,0],"split_type":[0,0,0,0,0,0,0,0,0],"sum_hessian":[1.33E2,3.5E1,9.8E1,6E1,3.8E1,1.2E1,4.8E1,3.3E1,5E0],"tree_param":{"num_deleted":"0","num_feature":"3","num_nodes":"9","size_leaf_vector":"1"}},{"base_weights":[2.0007232E-2,-3.145871E0,2.2906141E1,9.908743E0,4.264807E1,1.2885703E0,2.749031E-1,2.4471505E0,-6.5622963E-3],"categories":[],"categories_nodes":[],"categories_segments":[],"categories_sizes":[],"default_left":[0,0,0,0,0,0,0,0,0],"id":3,"left_children":[1,-1,3,5,7,-1,-1,-1,-1],"loss_changes":[1.9445405E5,0E0,2.4980188E4,4.1261816E3,1.0508852E4,0E0,0E0,0E0,0E0],"parents":[2147483647,0,0,2,2,3,3,4,4],"right_children":[2,-1,4,6,8,-1,-1,-1,-1],"split_conditions":[6E0,-3.145871E0,1.67E2,8E0,2.1E1,1.2885703E0,2.749031E-1,2.4471505E0,-6.5622963E-3],"split_indices":[2,0,0,2,2,0,0,0,0],"split_type":[0,0,0,0,0,0,0,0,0],"sum_hessian":[1.33E2,3.5E1,9.8E1,6E1,3.8E1,1.2E1,4.8E1,3.3E1,5E0],"tree_param":{"num_deleted":"0","num_feature":"3","num_nodes":"9","size_leaf_vector":"1"}},{"base_weights":[2.5413627E-2,-2.9929464E0,2.1801283E1,9.438936E0,4.057825E1,8.088749E-2,8.733452E-1,2.3283918E0,-6.28891E-3],"categories":[],"categories_nodes":[],"categories_segments":[],"categories_sizes":[],"default_left":[0,0,0,0,0,0,0,0,0],"id":4,"left_children":[1,-1,3,5,7,-1,-1,-1,-1],"loss_changes":[1.7604548E5,0E0,2.2597598E4,3.8018252E3,9.51407E3,0E0,0E0,0E0,0E0],"parents":[2147483647,0,0,2,2,3,3,4,4],"right_children":[2,-1,4,6,8,-1,-1,-1,-1],"split_conditions":[6E0,-2.9929464E0,1.67E2,1.28E2,2.1E1,8.088749E-2,8.733452E-1,2.3283918E0,-6.28891E-3],"split_indices":[2,0,0,0,2,0,0,0,0],"split_type":[0,0,0,0,0,0,0,0,0],"sum_hessian":[1.33E2,3.5E1,9.8E1,6E1,3.8E1,3.1E1,2.9E1,3.3E1,5E0],"tree_param":{"num_deleted":"0","num_feature":"3","num_nodes":"9","size_leaf_vector":"1"}},{"base_weights":[2.6257245E-2,-2.8474562E0,2.0744312E1,8.982629E0,3.8608887E1,1.2101246E0,2.3806937E-1,2.215397E0,-6.0269674E-3],"categories":[],"categories_nodes":[],"categories_segments":[],"categories_sizes":[],"default_left":[0,0,0,0,0,0,0,0,0],"id":5,"left_children":[1,-1,3,5,7,-1,-1,-1,-1],"loss_changes":[1.5935753E5,0E0,2.045482E4,3.8038125E3,8.613449E3,0E0,0E0,0E0,0E0],"parents":[2147483647,0,0,2,2,3,3,4,4],"right_children":[2,-1,4,6,8,-1,-1,-1,-1],"split_conditions":[6E0,-2.8474562E0,1.67E2,8E0,2.1E1,1.2101246E0,2.3806937E-1,2.215397E0,-6.0269674E-3],"split_indices":[2,0,0,2,2,0,0,0,0],"split_type":[0,0,0,0,0,0,0,0,0],"sum_hessian":[1.33E2,3.5E1,9.8E1,6E1,3.8E1,1.2E1,4.8E1,3.3E1,5E0],"tree_param":{"num_deleted":"0","num_feature":"3","num_nodes":"9","size_leaf_vector":"1"}},{"base_weights":[3.099157E-2,-2.7090383E0,1.9744043E1,8.55724E0,3.6735096E1,5.480621E-2,8.11526E-1,2.1078851E0,-5.775833E-3],"categories":[],"categories_nodes":[],"categories_segments":[],"categories_sizes":[],"default_left":[0,0,0,0,0,0,0,0,0],"id":6,"left_children":[1,-1,3,5,7,-1,-1,-1,-1],"loss_changes":[1.4427275E5,0E0,1.8503133E4,3.4745347E3,7.7980938E3,0E0,0E0,0E0,0E0],"parents":[2147483647,0,0,2,2,3,3,4,4],"right_children":[2,-1,4,6,8,-1,-1,-1,-1],"split_conditions":[6E0,-2.7090383E0,1.67E2,1.28E2,2.1E1,5.480621E-2,8.11526E-1,2.1078851E0,-5.775833E-3],"split_indices":[2,0,0,0,2,0,0,0,0],"split_type":[0,0,0,0,0,0,0,0,0],"sum_hessian":[1.33E2,3.5E1,9.8E1,6E1,3.8E1,3.1E1,2.9E1,3.3E1,5E0],"tree_param":{"num_deleted":"0","num_feature":"3","num_nodes":"9","size_leaf_vector":"1"}},{"base_weights":[3.137913E-2,-2.577349E0,1.8786827E1,8.143579E0,3.4952248E1,1.1371907E0,2.051926E-1,2.7479746E0,1.20123E0],"categories":[],"categories_nodes":[],"categories_segments":[],"categories_sizes":[],"default_left":[0,0,0,0,0,0,0,0,0],"id":7,"left_children":[1,-1,3,5,7,-1,-1,-1,-1],"loss_changes":[1.3059669E5,0E0,1.6748566E4,3.504501E3,7.2062695E3,0E0,0E0,0E0,0E0],"parents":[2147483647,0,0,2,2,3,3,4,4],"right_children":[2,-1,4,6,8,-1,-1,-1,-1],"split_conditions":[6E0,-2.577349E0,1.67E2,8E0,1E1,1.1371907E0,2.051926E-1,2.7479746E0,1.20123E0],"split_indices":[2,0,0,2,2,0,0,0,0],"split_type":[0,0,0,0,0,0,0,0,0],"sum_hessian":[1.33E2,3.5E1,9.8E1,6E1,3.8E1,1.2E1,4.8E1,1.2E1,2.6E1],"tree_param":{"num_deleted":"0","num_feature":"3","num_nodes":"9","size_leaf_vector":"1"}},{"base_weights":[5.006215E-2,-2.4520612E0,1.7900932E1,7.7584E0,3.3305897E1,1.0847049E0,1.9514197E-1,1.9200004E0,-5.5586245E-2],"categories":[],"categories_nodes":[],"categories_segments":[],"categories_sizes":[],"default_left":[0,0,0,0,0,0,0,0,0],"id":8,"left_children":[1,-1,3,5,7,-1,-1,-1,-1],"loss_changes":[1.18305055E5,0E0,1.5209889E4,3.1928567E3,6.880449E3,0E0,0E0,0E0,0E0],"parents":[2147483647,0,0,2,2,3,3,4,4],"right_children":[2,-1,4,6,8,-1,-1,-1,-1],"split_conditions":[6E0,-2.4520612E0,1.67E2,8E0,2.1E1,1.0847049E0,1.9514197E-1,1.9200004E0,-5.5586245E-2],"split_indices":[2,0,0,2,2,0,0,0,0],"split_type":[0,0,0,0,0,0,0,0,0],"sum_hessian":[1.33E2,3.5E1,9.8E1,6E1,3.8E1,1.2E1,4.8E1,3.3E1,5E0],"tree_param":{"num_deleted":"0","num_feature":"3","num_nodes":"9","size_leaf_vector":"1"}},{"base_weights":[5.272555E-2,-2.3328636E0,1.7037645E1,6.548036E0,3.0546253E1,1.0346417E0,1.1581244E-1,2.5325298E0,1.0565019E0],"categories":[],"categories_nodes":[],"categories_segments":[],"categories_sizes":[],"default_left":[0,0,0,0,0,0,0,0,0],"id":9,"left_children":[1,-1,3,5,7,-1,-1,-1,-1],"loss_changes":[1.07105914E5,0E0,1.3828281E4,3.3639639E3,7.0699453E3,0E0,0E0,0E0,0E0],"parents":[2147483647,0,0,2,2,3,3,4,4],"right_children":[2,-1,4,6,8,-1,-1,-1,-1],"split_conditions":[6E0,-2.3328636E0,1.46E2,8E0,1E1,1.0346417E0,1.1581244E-1,2.5325298E0,1.0565019E0],"split_indices":[2,0,0,2,2,0,0,0,0],"split_type":[0,0,0,0,0,0,0,0,0],"sum_hessian":[1.33E2,3.5E1,9.8E1,5.6E1,4.2E1,1.2E1,4.4E1,1.2E1,3E1],"tree_param":{"num_deleted":"0","num_feature":"3","num_nodes":"9","size_leaf_vector":"1"}},{"base_weights":[6.8048276E-2,-2.2194605E0,1.6233637E1,6.240817E0,2.9102406E1,9.868893E-1,1.1015042E-1,2.4156437E0,1.0053807E0],"categories":[],"categories_nodes":[],"categories_segments":[],"categories_sizes":[],"default_left":[0,0,0,0,0,0,0,0,0],"id":10,"left_children":[1,-1,3,5,7,-1,-1,-1,-1],"loss_changes":[9.7023414E4,0E0,1.2549309E4,3.0629136E3,6.4586914E3,0E0,0E0,0E0,0E0],"parents":[2147483647,0,0,2,2,3,3,4,4],"right_children":[2,-1,4,6,8,-1,-1,-1,-1],"split_conditions":[6E0,-2.2194605E0,1.46E2,8E0,1E1,9.868893E-1,1.1015042E-1,2.4156437E0,1.0053807E0],"split_indices":[2,0,0,2,2,0,0,0,0],"split_type":[0,0,0,0,0,0,0,0,0],"sum_hessian":[1.33E2,3.5E1,9.8E1,5.6E1,4.2E1,1.2E1,4.4E1,1.2E1,3E1],"tree_param":{"num_deleted":"0","num_feature":"3","num_nodes":"9","size_leaf_vector":"1"}},{"base_weights":[8.179639E-2,-2.1115701E0,1.5467587E1,5.9480195E0,2.772684E1,9.413404E-1,1.04765154E-1,2.3041523E0,9.5673305E-1],"categories":[],"categories_nodes":[],"categories_segments":[],"categories_sizes":[],"default_left":[0,0,0,0,0,0,0,0,0],"id":11,"left_children":[1,-1,3,5,7,-1,-1,-1,-1],"loss_changes":[8.789017E4,0E0,1.1388654E4,2.7887964E3,5.900164E3,0E0,0E0,0E0,0E0],"parents":[2147483647,0,0,2,2,3,3,4,4],"right_children":[2,-1,4,6,8,-1,-1,-1,-1],"split_conditions":[6E0,-2.1115701E0,1.46E2,8E0,1E1,9.413404E-1,1.04765154E-1,2.3041523E0,9.5673305E-1],"split_indices":[2,0,0,2,2,0,0,0,0],"split_type":[0,0,0,0,0,0,0,0,0],"sum_hessian":[1.33E2,3.5E1,9.8E1,5.6E1,4.2E1,1.2E1,4.4E1,1.2E1,3E1],"tree_param":{"num_deleted":"0","num_feature":"3","num_nodes":"9","size_leaf_vector":"1"}},{"base_weights":[9.409133E-2,-2.0089242E0,1.4737714E1,-6.394501E-1,2.1757296E1,-3.635777E-1,5.8535535E-2,2.2539809E0,6.549637E-1],"categories":[],"categories_nodes":[],"categories_segments":[],"categories_sizes":[],"default_left":[0,0,0,0,0,0,0,0,0],"id":12,"left_children":[1,-1,3,5,7,-1,-1,-1,-1],"loss_changes":[7.961681E4,0E0,1.0700098E4,3.9267844E2,1.31404E4,0E0,0E0,0E0,0E0],"parents":[2147483647,0,0,2,2,3,3,4,4],"right_children":[2,-1,4,6,8,-1,-1,-1,-1],"split_conditions":[6E0,-2.0089242E0,1.28E2,6E1,1E1,-3.635777E-1,5.8535535E-2,2.2539809E0,6.549637E-1],"split_indices":[2,0,0,0,2,0,0,0,0],"split_type":[0,0,0,0,0,0,0,0,0],"sum_hessian":[1.33E2,3.5E1,9.8E1,3.1E1,6.7E1,6E0,2.5E1,1.7E1,5E1],"tree_param":{"num_deleted":"0","num_feature":"3","num_nodes":"9","size_leaf_vector":"1"}},{"base_weights":[9.382578E-2,-1.9112681E0,1.4027128E1,-6.1700916E-1,2.0712206E1,-3.479961E-1,5.572146E-2,2.1475427E0,6.228574E-1],"categories":[],"categories_nodes":[],"categories_segments":[],"categories_sizes":[],"default_left":[0,0,0,0,0,0,0,0,0],"id":13,"left_children":[1,-1,3,5,7,-1,-1,-1,-1],"loss_changes":[7.208051E4,0E0,9.704602E3,3.5919193E2,1.1948484E4,0E0,0E0,0E0,0E0],"parents":[2147483647,0,0,2,2,3,3,4,4],"right_children":[2,-1,4,6,8,-1,-1,-1,-1],"split_conditions":[6E0,-1.9112681E0,1.28E2,6E1,1E1,-3.479961E-1,5.572146E-2,2.1475427E0,6.228574E-1],"split_indices":[2,0,0,0,2,0,0,0,0],"split_type":[0,0,0,0,0,0,0,0,0],"sum_hessian":[1.33E2,3.5E1,9.8E1,3.1E1,6.7E1,6E0,2.5E1,1.7E1,5E1],"tree_param":{"num_deleted":"0","num_feature":"3","num_nodes":"9","size_leaf_vector":"1"}},{"base_weights":[9.336278E-2,-1.8183593E0,1.33508E1,4.8592973E0,2.4296494E1,8.292303E-1,6.8200074E-2,1.4113473E0,-2.3228875E-1],"categories":[],"categories_nodes":[],"categories_segments":[],"categories_sizes":[],"default_left":[0,0,0,0,0,0,0,0,0],"id":14,"left_children":[1,-1,3,5,7,-1,-1,-1,-1],"loss_changes":[6.5257562E4,0E0,9.083531E3,2.3134336E3,5.0226504E3,0E0,0E0,0E0,0E0],"parents":[2147483647,0,0,2,2,3,3,4,4],"right_children":[2,-1,4,6,8,-1,-1,-1,-1],"split_conditions":[6E0,-1.8183593E0,1.46E2,8E0,2.1E1,8.292303E-1,6.8200074E-2,1.4113473E0,-2.3228875E-1],"split_indices":[2,0,0,2,2,0,0,0,0],"split_type":[0,0,0,0,0,0,0,0,0],"sum_hessian":[1.33E2,3.5E1,9.8E1,5.6E1,4.2E1,1.2E1,4.4E1,3.7E1,5E0],"tree_param":{"num_deleted":"0","num_feature":"3","num_nodes":"9","size_leaf_vector":"1"}},{"base_weights":[9.06195E-2,-1.7299668E0,1.2704232E1,-8.2784367E-1,1.888544E1,-3.686203E-1,4.82997E-2,1.9875695E0,5.5753434E-1],"categories":[],"categories_nodes":[],"categories_segments":[],"categories_sizes":[],"default_left":[0,0,0,0,0,0,0,0,0],"id":15,"left_children":[1,-1,3,5,7,-1,-1,-1,-1],"loss_changes":[5.907335E4,0E0,8.296446E3,3.827979E2,1.0531469E4,0E0,0E0,0E0,0E0],"parents":[2147483647,0,0,2,2,3,3,4,4],"right_children":[2,-1,4,6,8,-1,-1,-1,-1],"split_conditions":[6E0,-1.7299668E0,1.28E2,6E1,1E1,-3.686203E-1,4.82997E-2,1.9875695E0,5.5753434E-1],"split_indices":[2,0,0,0,2,0,0,0,0],"split_type":[0,0,0,0,0,0,0,0,0],"sum_hessian":[1.33E2,3.5E1,9.8E1,3.1E1,6.7E1,6E0,2.5E1,1.7E1,5E1],"tree_param":{"num_deleted":"0","num_feature":"3","num_nodes":"9","size_leaf_vector":"1"}},{"base_weights":[8.978015E-2,-1.6458712E0,1.2091493E1,4.8610415E0,2.309062E1,-3.9822843E-2,5.366836E-1,1.3676987E0,-2.458411E-1],"categories":[],"categories_nodes":[],"categories_segments":[],"categories_sizes":[],"default_left":[0,0,0,0,0,0,0,0,0],"id":16,"left_children":[1,-1,3,5,7,-1,-1,-1,-1],"loss_changes":[5.3481176E4,0E0,7.761092E3,2.0352373E3,4.7913145E3,0E0,0E0,0E0,0E0],"parents":[2147483647,0,0,2,2,3,3,4,4],"right_children":[2,-1,4,6,8,-1,-1,-1,-1],"split_conditions":[6E0,-1.6458712E0,1.67E2,1.28E2,2.1E1,-3.9822843E-2,5.366836E-1,1.3676987E0,-2.458411E-1],"split_indices":[2,0,0,0,2,0,0,0,0],"split_type":[0,0,0,0,0,0,0,0,0],"sum_hessian":[1.33E2,3.5E1,9.8E1,6E1,3.8E1,3.1E1,2.9E1,3.3E1,5E0],"tree_param":{"num_deleted":"0","num_feature":"3","num_nodes":"9","size_leaf_vector":"1"}},{"base_weights":[8.5088074E-2,-1.5658634E0,1.1503266E1,2.6275291E1,6.425882E0,-3.5111544E-1,1.8579959E0,-3.650132E-1,1.0749329E0],"categories":[],"categories_nodes":[],"categories_segments":[],"categories_sizes":[],"default_left":[0,0,0,0,0,0,0,0,0],"id":17,"left_children":[1,-1,3,5,7,-1,-1,-1,-1],"loss_changes":[4.8406984E4,0E0,7.2564805E3,9.321746E3,1.5673781E4,0E0,0E0,0E0,0E0],"parents":[2147483647,0,0,2,2,3,3,4,4],"right_children":[2,-1,4,6,8,-1,-1,-1,-1],"split_conditions":[6E0,-1.5658634E0,1E1,6E1,1.7E1,-3.5111544E-1,1.8579959E0,-3.650132E-1,1.0749329E0],"split_indices":[2,0,2,0,2,0,0,0,0],"split_type":[0,0,0,0,0,0,0,0,0],"sum_hessian":[1.33E2,3.5E1,9.8E1,2.4E1,7.4E1,6E0,1.8E1,3.9E1,3.5E1],"tree_param":{"num_deleted":"0","num_feature":"3","num_nodes":"9","size_leaf_vector":"1"}},{"base_weights":[8.569256E-2,-1.489745E0,1.0950497E1,2.50218E1,6.1140556E0,-3.360674E-1,1.7699852E0,-3.4721848E-1,1.0226792E0],"categories":[],"categories_nodes":[],"categories_segments":[],"categories_sizes":[],"default_left":[0,0,0,0,0,0,0,0,0],"id":18,"left_children":[1,-1,3,5,7,-1,-1,-1,-1],"loss_changes":[4.3828938E4,0E0,6.584461E3,8.473621E3,1.4185909E4,0E0,0E0,0E0,0E0],"parents":[2147483647,0,0,2,2,3,3,4,4],"right_children":[2,-1,4,6,8,-1,-1,-1,-1],"split_conditions":[6E0,-1.489745E0,1E1,6E1,1.7E1,-3.360674E-1,1.7699852E0,-3.4721848E-1,1.0226792E0],"split_indices":[2,0,2,0,2,0,0,0,0],"split_type":[0,0,0,0,0,0,0,0,0],"sum_hessian":[1.33E2,3.5E1,9.8E1,2.4E1,7.4E1,6E0,1.8E1,3.9E1,3.5E1],"tree_param":{"num_deleted":"0","num_feature":"3","num_nodes":"9","size_leaf_vector":"1"}},{"base_weights":[8.603201E-2,-1.4173268E0,1.0424278E1,1.3782825E1,-7.8596153E0,2.5895953E-1,1.9673551E0,-5.5994418E-2,-4.6643957E-1],"categories":[],"categories_nodes":[],"categories_segments":[],"categories_sizes":[],"default_left":[0,0,0,0,0,0,0,0,0],"id":19,"left_children":[1,-1,3,5,7,-1,-1,-1,-1],"loss_changes":[3.9683836E4,0E0,6.1876533E3,1.8271656E4,1.4798242E2,0E0,0E0,0E0,0E0],"parents":[2147483647,0,0,2,2,3,3,4,4],"right_children":[2,-1,4,6,8,-1,-1,-1,-1],"split_conditions":[6E0,-1.4173268E0,2.1E1,1.7E1,1.19E2,2.5895953E-1,1.9673551E0,-5.5994418E-2,-4.6643957E-1],"split_indices":[2,0,2,2,0,0,0,0,0],"split_type":[0,0,0,0,0,0,0,0,0],"sum_hessian":[1.33E2,3.5E1,9.8E1,8.3E1,1.5E1,6.3E1,2E1,3E0,1.2E1],"tree_param":{"num_deleted":"0","num_feature":"3","num_nodes":"9","size_leaf_vector":"1"}},{"base_weights":[8.3870165E-2,-2.422513E1,1.1061227E1,-1.3484288E0,-6.655247E0,1.6738774E0,5.234943E0,-1.4741707E-1,-4.3491706E-1,-3.4291595E-1,9.263243E-1],"categories":[],"categories_nodes":[],"categories_segments":[],"categories_sizes":[],"default_left":[0,0,0,0,0,0,0,0,0,0,0],"id":20,"left_children":[1,3,5,-1,7,-1,9,-1,-1,-1,-1],"loss_changes":[3.6025668E4,1.845002E3,1.1970905E4,0E0,2.7369232E1,0E0,1.2182416E4,0E0,0E0,0E0,0E0],"parents":[2147483647,0,0,1,1,2,2,4,4,6,6],"right_children":[2,4,6,-1,8,-1,10,-1,-1,-1,-1],"split_conditions":[7E0,6E0,1E1,-1.3484288E0,4E0,1.6738774E0,1.7E1,-1.4741707E-1,-4.3491706E-1,-3.4291595E-1,9.263243E-1],"split_indices":[2,2,2,0,1,0,2,0,0,0,0],"split_type":[0,0,0,0,0,0,0,0,0,0,0],"sum_hessian":[1.33E2,4.1E1,9.2E1,3.5E1,6E0,1.8E1,7.4E1,3E0,3E0,3.9E1,3.5E1],"tree_param":{"num_deleted":"0","num_feature":"3","num_nodes":"11","size_leaf_vector":"1"}},{"base_weights":[8.211022E-2,-2.3059847E1,1.05324335E1,-1.2828803E0,-6.4056745E0,1.5945886E0,4.980969E0,-1.41889E-1,-4.1860753E-1,-3.2619902E-1,8.8129425E-1],"categories":[],"categories_nodes":[],"categories_segments":[],"categories_sizes":[],"default_left":[0,0,0,0,0,0,0,0,0,0,0],"id":21,"left_children":[1,3,5,-1,7,-1,9,-1,-1,-1,-1],"loss_changes":[3.264956E4,1.6527129E3,1.0868681E4,0E0,2.535492E1,0E0,1.1025926E4,0E0,0E0,0E0,0E0],"parents":[2147483647,0,0,1,1,2,2,4,4,6,6],"right_children":[2,4,6,-1,8,-1,10,-1,-1,-1,-1],"split_conditions":[7E0,6E0,1E1,-1.2828803E0,4E0,1.5945886E0,1.7E1,-1.41889E-1,-4.1860753E-1,-3.2619902E-1,8.8129425E-1],"split_indices":[2,2,2,0,1,0,2,0,0,0,0],"split_type":[0,0,0,0,0,0,0,0,0,0,0],"sum_hessian":[1.33E2,4.1E1,9.2E1,3.5E1,6E0,1.8E1,7.4E1,3E0,3E0,3.9E1,3.5E1],"tree_param":{"num_deleted":"0","num_feature":"3","num_nodes":"11","size_leaf_vector":"1"}},{"base_weights":[8.0293514E-2,-2.195074E1,1.002893E1,-1.220518E0,-6.1654596E0,1.5190554E0,4.739326E0,-1.3656807E-1,-4.0290967E-1,-3.1029668E-1,8.384539E-1],"categories":[],"categories_nodes":[],"categories_segments":[],"categories_sizes":[],"default_left":[0,0,0,0,0,0,0,0,0,0,0],"id":22,"left_children":[1,3,5,-1,7,-1,9,-1,-1,-1,-1],"loss_changes":[2.9590096E4,1.4801816E3,9.867926E3,0E0,2.3488983E1,0E0,9.979223E3,0E0,0E0,0E0,0E0],"parents":[2147483647,0,0,1,1,2,2,4,4,6,6],"right_children":[2,4,6,-1,8,-1,10,-1,-1,-1,-1],"split_conditions":[7E0,6E0,1E1,-1.220518E0,4E0,1.5190554E0,1.7E1,-1.3656807E-1,-4.0290967E-1,-3.1029668E-1,8.384539E-1],"split_indices":[2,2,2,0,1,0,2,0,0,0,0],"split_type":[0,0,0,0,0,0,0,0,0,0,0],"sum_hessian":[1.33E2,4.1E1,9.2E1,3.5E1,6E0,1.8E1,7.4E1,3E0,3E0,3.9E1,3.5E1],"tree_param":{"num_deleted":"0","num_feature":"3","num_nodes":"11","size_leaf_vector":"1"}},{"base_weights":[7.842374E-2,-2.0895107E1,9.549498E0,-1.161187E0,-5.9342566E0,1.4471E0,4.509404E0,-1.3144684E-1,-3.878006E-1,-2.951694E-1,7.976956E-1],"categories":[],"categories_nodes":[],"categories_segments":[],"categories_sizes":[],"default_left":[0,0,0,0,0,0,0,0,0,0,0],"id":23,"left_children":[1,3,5,-1,7,-1,9,-1,-1,-1,-1],"loss_changes":[2.6817547E4,1.3253965E3,8.959312E3,0E0,2.176033E1,0E0,9.031879E3,0E0,0E0,0E0,0E0],"parents":[2147483647,0,0,1,1,2,2,4,4,6,6],"right_children":[2,4,6,-1,8,-1,10,-1,-1,-1,-1],"split_conditions":[7E0,6E0,1E1,-1.161187E0,4E0,1.4471E0,1.7E1,-1.3144684E-1,-3.878006E-1,-2.951694E-1,7.976956E-1],"split_indices":[2,2,2,0,1,0,2,0,0,0,0],"split_type":[0,0,0,0,0,0,0,0,0,0,0],"sum_hessian":[1.33E2,4.1E1,9.2E1,3.5E1,6E0,1.8E1,7.4E1,3E0,3E0,3.9E1,3.5E1],"tree_param":{"num_deleted":"0","num_feature":"3","num_nodes":"11","size_leaf_vector":"1"}},{"base_weights":[7.6509506E-2,-1.9890364E1,9.092984E0,-1.1047405E0,-5.7117243E0,1.3785533E0,4.290631E0,-1.2651788E-1,-3.7325802E-1,-2.8078008E-1,7.589186E-1],"categories":[],"categories_nodes":[],"categories_segments":[],"categories_sizes":[],"default_left":[0,0,0,0,0,0,0,0,0,0,0],"id":24,"left_children":[1,3,5,-1,7,-1,9,-1,-1,-1,-1],"loss_changes":[2.4304992E4,1.1865566E3,8.134362E3,0E0,2.0158737E1,0E0,8.174472E3,0E0,0E0,0E0,0E0],"parents":[2147483647,0,0,1,1,2,2,4,4,6,6],"right_children":[2,4,6,-1,8,-1,10,-1,-1,-1,-1],"split_conditions":[7E0,6E0,1E1,-1.1047405E0,4E0,1.3785533E0,1.7E1,-1.2651788E-1,-3.7325802E-1,-2.8078008E-1,7.589186E-1],"split_indices":[2,2,2,0,1,0,2,0,0,0,0],"split_type":[0,0,0,0,0,0,0,0,0,0,0],"sum_hessian":[1.33E2,4.1E1,9.2E1,3.5E1,6E0,1.8E1,7.4E1,3E0,3E0,3.9E1,3.5E1],"tree_param":{"num_deleted":"0","num_feature":"3","num_nodes":"11","size_leaf_vector":"1"}},{"base_weights":[7.456748E-2,-1.8934046E1,8.6583E0,-1.0510377E0,-5.4975367E0,1.2669882E1,-1.14393E1,-1.2177372E-1,-3.5926077E-1,2.4600215E-1,1.6735436E0,-2.1149503E-1,-6.388815E-1],"categories":[],"categories_nodes":[],"categories_segments":[],"categories_sizes":[],"default_left":[0,0,0,0,0,0,0,0,0,0,0,0,0],"id":25,"left_children":[1,3,5,-1,7,9,11,-1,-1,-1,-1,-1,-1],"loss_changes":[2.202803E4,1.0620361E3,7.642888E3,0E0,1.8675034E1,1.2409259E4,1.0032886E2,0E0,0E0,0E0,0E0,0E0,0E0],"parents":[2147483647,0,0,1,1,2,2,4,4,5,5,6,6],"right_children":[2,4,6,-1,8,10,12,-1,-1,-1,-1,-1,-1],"split_conditions":[7E0,6E0,2.1E1,-1.0510377E0,4E0,1.7E1,1.19E2,-1.2177372E-1,-3.5926077E-1,2.4600215E-1,1.6735436E0,-2.1149503E-1,-6.388815E-1],"split_indices":[2,2,2,0,1,2,0,0,0,0,0,0,0],"split_type":[0,0,0,0,0,0,0,0,0,0,0,0,0],"sum_hessian":[1.33E2,4.1E1,9.2E1,3.5E1,6E0,7.7E1,1.5E1,3E0,3E0,5.7E1,2E1,3E0,1.2E1],"tree_param":{"num_deleted":"0","num_feature":"3","num_nodes":"13","size_leaf_vector":"1"}},{"base_weights":[6.738697E-2,-1.8023819E1,8.236884E0,-9.9994546E-1,-5.2913733E0,1.3016006E0,3.6189601E0,-1.1720695E-1,-3.457882E-1,-2.790848E-1,6.8706924E-1],"categories":[],"categories_nodes":[],"categories_segments":[],"categories_sizes":[],"default_left":[0,0,0,0,0,0,0,0,0,0,0],"id":26,"left_children":[1,3,5,-1,7,-1,9,-1,-1,-1,-1],"loss_changes":[1.9953129E4,9.503828E2,7.548209E3,0E0,1.7300705E1,0E0,7.061671E3,0E0,0E0,0E0,0E0],"parents":[2147483647,0,0,1,1,2,2,4,4,6,6],"right_children":[2,4,6,-1,8,-1,10,-1,-1,-1,-1],"split_conditions":[7E0,6E0,1E1,-9.9994546E-1,4E0,1.3016006E0,1.7E1,-1.1720695E-1,-3.457882E-1,-2.790848E-1,6.8706924E-1],"split_indices":[2,2,2,0,1,0,2,0,0,0,0],"split_type":[0,0,0,0,0,0,0,0,0,0,0],"sum_hessian":[1.33E2,4.1E1,9.2E1,3.5E1,6E0,1.8E1,7.4E1,3E0,3E0,3.9E1,3.5E1],"tree_param":{"num_deleted":"0","num_feature":"3","num_nodes":"11","size_leaf_vector":"1"}},{"base_weights":[6.585659E-2,-1.7157457E1,7.8434196E0,-9.51337E-1,-5.0929456E0,1.1723997E1,-1.156461E1,-1.12811856E-1,-3.328209E-1,2.2309975E-1,1.5611335E0,-2.2932892E-1,-6.411056E-1],"categories":[],"categories_nodes":[],"categories_segments":[],"categories_sizes":[],"default_left":[0,0,0,0,0,0,0,0,0,0,0,0,0],"id":27,"left_children":[1,3,5,-1,7,9,11,-1,-1,-1,-1,-1,-1],"loss_changes":[1.8084598E4,8.502803E2,7.1398193E3,0E0,1.6027359E1,1.0905438E4,8.158862E1,0E0,0E0,0E0,0E0,0E0,0E0],"parents":[2147483647,0,0,1,1,2,2,4,4,5,5,6,6],"right_children":[2,4,6,-1,8,10,12,-1,-1,-1,-1,-1,-1],"split_conditions":[7E0,6E0,2.1E1,-9.51337E-1,4E0,1.7E1,1.19E2,-1.12811856E-1,-3.328209E-1,2.2309975E-1,1.5611335E0,-2.2932892E-1,-6.411056E-1],"split_indices":[2,2,2,0,1,2,0,0,0,0,0,0,0],"split_type":[0,0,0,0,0,0,0,0,0,0,0,0,0],"sum_hessian":[1.33E2,4.1E1,9.2E1,3.5E1,6E0,7.7E1,1.5E1,3E0,3E0,5.7E1,2E1,3E0,1.2E1],"tree_param":{"num_deleted":"0","num_feature":"3","num_nodes":"13","size_leaf_vector":"1"}},{"base_weights":[5.895939E-2,-1.6332844E1,7.4610753E0,-9.050913E-1,-4.90196E0,1.2293777E0,3.0228863E0,-1.0858154E-1,-3.2033998E-1,-2.7635556E-1,6.2194574E-1],"categories":[],"categories_nodes":[],"categories_segments":[],"categories_sizes":[],"default_left":[0,0,0,0,0,0,0,0,0,0,0],"id":28,"left_children":[1,3,5,-1,7,-1,9,-1,-1,-1,-1],"loss_changes":[1.638062E4,7.605488E2,6.9946562E3,0E0,1.4847748E1,0E0,6.1067773E3,0E0,0E0,0E0,0E0],"parents":[2147483647,0,0,1,1,2,2,4,4,6,6],"right_children":[2,4,6,-1,8,-1,10,-1,-1,-1,-1],"split_conditions":[7E0,6E0,1E1,-9.050913E-1,4E0,1.2293777E0,1.7E1,-1.0858154E-1,-3.2033998E-1,-2.7635556E-1,6.2194574E-1],"split_indices":[2,2,2,0,1,0,2,0,0,0,0],"split_type":[0,0,0,0,0,0,0,0,0,0,0],"sum_hessian":[1.33E2,4.1E1,9.2E1,3.5E1,6E0,1.8E1,7.4E1,3E0,3E0,3.9E1,3.5E1],"tree_param":{"num_deleted":"0","num_feature":"3","num_nodes":"11","size_leaf_vector":"1"}},{"base_weights":[5.7806782E-2,-1.5547964E1,7.104953E0,-1.7221876E1,-4.7181354E0,1.0855673E1,-1.1623864E1,-7.318282E-1,-1.0335001E0,-1.0450973E-1,-3.083271E-1,2.0235161E-1,1.4571775E0,-2.4405232E-1,-6.402217E-1],"categories":[],"categories_nodes":[],"categories_segments":[],"categories_sizes":[],"default_left":[0,0,0,0,0,0,0,0,0,0,0,0,0,0,0],"id":29,"left_children":[1,3,5,7,9,11,13,-1,-1,-1,-1,-1,-1,-1,-1],"loss_changes":[1.48472705E4,6.801289E2,6.6591123E3,1.838379E1,1.3755035E1,9.5942705E3,6.486694E1,0E0,0E0,0E0,0E0,0E0,0E0,0E0,0E0],"parents":[2147483647,0,0,1,1,2,2,3,3,4,4,5,5,6,6],"right_children":[2,4,6,8,10,12,14,-1,-1,-1,-1,-1,-1,-1,-1],"split_conditions":[7E0,6E0,2.1E1,5.9E1,4E0,1.7E1,1.19E2,-7.318282E-1,-1.0335001E0,-1.0450973E-1,-3.083271E-1,2.0235161E-1,1.4571775E0,-2.4405232E-1,-6.402217E-1],"split_indices":[2,2,2,0,1,2,0,0,0,0,0,0,0,0,0],"split_type":[0,0,0,0,0,0,0,0,0,0,0,0,0,0,0],"sum_hessian":[1.33E2,4.1E1,9.2E1,3.5E1,6E0,7.7E1,1.5E1,2.3E1,1.2E1,3E0,3E0,5.7E1,2E1,3E0,1.2E1],"tree_param":{"num_deleted":"0","num_feature":"3","num_nodes":"15","size_leaf_vector":"1"}},{"base_weights":[4.444851E-2,-1.4822428E1,6.758044E0,-1.640982E1,-4.541203E0,1.1615589E0,2.4947426E0,-6.9676155E-1,-9.858001E-1,-1.00590706E-1,-2.9676458E-1,-2.727478E-1,5.629222E-1],"categories":[],"categories_nodes":[],"categories_segments":[],"categories_sizes":[],"default_left":[0,0,0,0,0,0,0,0,0,0,0,0,0],"id":30,"left_children":[1,3,5,7,9,-1,11,-1,-1,-1,-1,-1,-1],"loss_changes":[1.3474735E4,6.109346E2,6.4734272E3,1.9785156E1,1.2742645E1,0E0,5.2865723E3,0E0,0E0,0E0,0E0,0E0,0E0],"parents":[2147483647,0,0,1,1,2,2,3,3,4,4,6,6],"right_children":[2,4,6,8,10,-1,12,-1,-1,-1,-1,-1,-1],"split_conditions":[7E0,6E0,1E1,5.9E1,4E0,1.1615589E0,1.7E1,-6.9676155E-1,-9.858001E-1,-1.00590706E-1,-2.9676458E-1,-2.727478E-1,5.629222E-1],"split_indices":[2,2,2,0,1,0,2,0,0,0,0,0,0],"split_type":[0,0,0,0,0,0,0,0,0,0,0,0,0],"sum_hessian":[1.33E2,4.1E1,9.2E1,3.5E1,6E0,1.8E1,7.4E1,2.3E1,1.2E1,3E0,3E0,3.9E1,3.5E1],"tree_param":{"num_deleted":"0","num_feature":"3","num_nodes":"13","size_leaf_vector":"1"}},{"base_weights":[3.753776E-2,-1.4130827E1,6.4357505E0,-1.5636066E1,-4.3709083E0,1.0058149E1,-1.1625678E1,-6.63375E-1,-9.4030154E-1,-9.681874E-2,-2.8563577E-1,1.8355459E-1,1.3609818E0,-4.0924796E-1,-7.4400896E-1],"categories":[],"categories_nodes":[],"categories_segments":[],"categories_sizes":[],"default_left":[0,0,0,0,0,0,0,0,0,0,0,0,0,0,0],"id":31,"left_children":[1,3,5,7,9,11,13,-1,-1,-1,-1,-1,-1,-1,-1],"loss_changes":[1.223834E4,5.4867773E2,6.2015225E3,2.0788086E1,1.1804749E1,8.449764E3,5.7371582E1,0E0,0E0,0E0,0E0,0E0,0E0,0E0,0E0],"parents":[2147483647,0,0,1,1,2,2,3,3,4,4,5,5,6,6],"right_children":[2,4,6,8,10,12,14,-1,-1,-1,-1,-1,-1,-1,-1],"split_conditions":[7E0,6E0,2.1E1,5.9E1,4E0,1.7E1,5E0,-6.63375E-1,-9.4030154E-1,-9.681874E-2,-2.8563577E-1,1.8355459E-1,1.3609818E0,-4.0924796E-1,-7.4400896E-1],"split_indices":[2,2,2,0,1,2,1,0,0,0,0,0,0,0,0],"split_type":[0,0,0,0,0,0,0,0,0,0,0,0,0,0,0],"sum_hessian":[1.33E2,4.1E1,9.2E1,3.5E1,6E0,7.7E1,1.5E1,2.3E1,1.2E1,3E0,3E0,5.7E1,2E1,9E0,6E0],"tree_param":{"num_deleted":"0","num_feature":"3","num_nodes":"15","size_leaf_vector":"1"}},{"base_weights":[2.3761578E-2,-1.3471576E1,6.1181746E0,-1.4898809E1,-4.207003E0,1.0978432E0,2.0241306E0,-6.315882E-1,-8.9690304E-1,-9.31881E-2,-2.7492467E-1,-2.6839918E-1,5.0906825E-1],"categories":[],"categories_nodes":[],"categories_segments":[],"categories_sizes":[],"default_left":[0,0,0,0,0,0,0,0,0,0,0,0,0],"id":32,"left_children":[1,3,5,7,9,-1,11,-1,-1,-1,-1,-1,-1],"loss_changes":[1.1103407E4,4.926748E2,5.986075E3,2.145459E1,1.0936028E1,0E0,4.5770938E3,0E0,0E0,0E0,0E0,0E0,0E0],"parents":[2147483647,0,0,1,1,2,2,3,3,4,4,6,6],"right_children":[2,4,6,8,10,-1,12,-1,-1,-1,-1,-1,-1],"split_conditions":[7E0,6E0,1E1,5.9E1,4E0,1.0978432E0,1.7E1,-6.315882E-1,-8.9690304E-1,-9.31881E-2,-2.7492467E-1,-2.6839918E-1,5.0906825E-1],"split_indices":[2,2,2,0,1,0,2,0,0,0,0,0,0],"split_type":[0,0,0,0,0,0,0,0,0,0,0,0,0],"sum_hessian":[1.33E2,4.1E1,9.2E1,3.5E1,6E0,1.8E1,7.4E1,2.3E1,1.2E1,3E0,3E0,3.9E1,3.5E1],"tree_param":{"num_deleted":"0","num_feature":"3","num_nodes":"13","size_leaf_vector":"1"}},{"base_weights":[1.8411664E-2,-1.2843152E1,5.826662E0,-1.4196324E1,-4.0492444E0,9.325374E0,-1.1593726E1,-6.013245E-1,-8.555075E-1,-8.969364E-2,-2.6461527E-1,1.6652386E-1,1.2719322E0,-2.5138456E-1,-6.3611096E-1],"categories":[],"categories_nodes":[],"categories_segments":[],"categories_sizes":[],"default_left":[0,0,0,0,0,0,0,0,0,0,0,0,0,0,0],"id":33,"left_children":[1,3,5,7,9,11,13,-1,-1,-1,-1,-1,-1,-1,-1],"loss_changes":[1.008506E4,4.4230225E2,5.7763657E3,2.183496E1,1.0131218E1,7.4498735E3,5.459204E1,0E0,0E0,0E0,0E0,0E0,0E0,0E0,0E0],"parents":[2147483647,0,0,1,1,2,2,3,3,4,4,5,5,6,6],"right_children":[2,4,6,8,10,12,14,-1,-1,-1,-1,-1,-1,-1,-1],"split_conditions":[7E0,6E0,2.1E1,5.9E1,4E0,1.7E1,1.19E2,-6.013245E-1,-8.555075E-1,-8.969364E-2,-2.6461527E-1,1.6652386E-1,1.2719322E0,-2.5138456E-1,-6.3611096E-1],"split_indices":[2,2,2,0,1,2,0,0,0,0,0,0,0,0,0],"split_type":[0,0,0,0,0,0,0,0,0,0,0,0,0,0,0],"sum_hessian":[1.33E2,4.1E1,9.2E1,3.5E1,6E0,7.7E1,1.5E1,2.3E1,1.2E1,3E0,3E0,5.7E1,2E1,3E0,1.2E1],"tree_param":{"num_deleted":"0","num_feature":"3","num_nodes":"15","size_leaf_vector":"1"}},{"base_weights":[8.089607E-3,-1.2244117E1,5.541257E0,-1.3526976E1,-3.8973978E0,1.0379525E0,1.6121991E0,-5.725109E-1,-8.160226E-1,-8.633023E-2,-2.5469208E-1,-2.6343235E-1,4.6064004E-1],"categories":[],"categories_nodes":[],"categories_segments":[],"categories_sizes":[],"default_left":[0,0,0,0,0,0,0,0,0,0,0,0,0],"id":34,"left_children":[1,3,5,7,9,-1,11,-1,-1,-1,-1,-1,-1],"loss_changes":[9.152178E3,3.9700195E2,5.5271504E3,2.1976562E1,9.385582E0,0E0,3.9709321E3,0E0,0E0,0E0,0E0,0E0,0E0],"parents":[2147483647,0,0,1,1,2,2,3,3,4,4,6,6],"right_children":[2,4,6,8,10,-1,12,-1,-1,-1,-1,-1,-1],"split_conditions":[7E0,6E0,1E1,5.9E1,4E0,1.0379525E0,1.7E1,-5.725109E-1,-8.160226E-1,-8.633023E-2,-2.5469208E-1,-2.6343235E-1,4.6064004E-1],"split_indices":[2,2,2,0,1,0,2,0,0,0,0,0,0],"split_type":[0,0,0,0,0,0,0,0,0,0,0,0,0],"sum_hessian":[1.33E2,4.1E1,9.2E1,3.5E1,6E0,1.8E1,7.4E1,2.3E1,1.2E1,3E0,3E0,3.9E1,3.5E1],"tree_param":{"num_deleted":"0","num_feature":"3","num_nodes":"13","size_leaf_vector":"1"}},{"base_weights":[3.993077E-3,-1.167309E1,5.2774715E0,-1.2889196E1,-3.7512403E0,8.651625E0,-1.1501367E1,-4.6540084E-1,-7.046298E-1,-8.309269E-2,-2.4514084E-1,1.5109198E-1,1.1894287E0,-4.0776786E-1,-7.3191637E-1],"categories":[],"categories_nodes":[],"categories_segments":[],"categories_sizes":[],"default_left":[0,0,0,0,0,0,0,0,0,0,0,0,0,0,0],"id":35,"left_children":[1,3,5,7,9,11,13,-1,-1,-1,-1,-1,-1,-1,-1],"loss_changes":[8.31317E3,3.5626953E2,5.3646416E3,2.3971191E1,8.694862E0,6.575101E3,4.856006E1,0E0,0E0,0E0,0E0,0E0,0E0,0E0,0E0],"parents":[2147483647,0,0,1,1,2,2,3,3,4,4,5,5,6,6],"right_children":[2,4,6,8,10,12,14,-1,-1,-1,-1,-1,-1,-1,-1],"split_conditions":[7E0,6E0,2.1E1,5E1,4E0,1.7E1,5E0,-4.6540084E-1,-7.046298E-1,-8.309269E-2,-2.4514084E-1,1.5109198E-1,1.1894287E0,-4.0776786E-1,-7.3191637E-1],"split_indices":[2,2,2,0,1,2,1,0,0,0,0,0,0,0,0],"split_type":[0,0,0,0,0,0,0,0,0,0,0,0,0,0,0],"sum_hessian":[1.33E2,4.1E1,9.2E1,3.5E1,6E0,7.7E1,1.5E1,1.1E1,2.4E1,3E0,3E0,5.7E1,2E1,9E0,6E0],"tree_param":{"num_deleted":"0","num_feature":"3","num_nodes":"15","size_leaf_vector":"1"}},{"base_weights":[-5.88864E-3,-1.1125109E1,5.0157576E0,-1.2277239E1,-3.610563E0,9.8162955E-1,1.2459499E0,-5.16797E-1,-7.458386E-1,-7.997646E-2,-2.359478E-1,-3.6246303E-1,3.3796093E-1],"categories":[],"categories_nodes":[],"categories_segments":[],"categories_sizes":[],"default_left":[0,0,0,0,0,0,0,0,0,0,0,0,0],"id":36,"left_children":[1,3,5,7,9,-1,11,-1,-1,-1,-1,-1,-1],"loss_changes":[7.53793E3,3.1929736E2,5.1000854E3,3.028955E1,8.055E0,0E0,3.5617273E3,0E0,0E0,0E0,0E0,0E0,0E0],"parents":[2147483647,0,0,1,1,2,2,3,3,4,4,6,6],"right_children":[2,4,6,8,10,-1,12,-1,-1,-1,-1,-1,-1],"split_conditions":[7E0,6E0,1E1,5.9E1,4E0,9.8162955E-1,1.5E1,-5.16797E-1,-7.458386E-1,-7.997646E-2,-2.359478E-1,-3.6246303E-1,3.3796093E-1],"split_indices":[2,2,2,0,1,0,2,0,0,0,0,0,0],"split_type":[0,0,0,0,0,0,0,0,0,0,0,0,0],"sum_hessian":[1.33E2,4.1E1,9.2E1,3.5E1,6E0,1.8E1,7.4E1,2.3E1,1.2E1,3E0,3E0,2.9E1,4.5E1],"tree_param":{"num_deleted":"0","num_feature":"3","num_nodes":"13","size_leaf_vector":"1"}},{"base_weights":[-1.0234207E-2,-1.0606436E1,4.775257E0,-1.1698447E1,-3.4751697E0,8.014473E0,-1.1314376E1,-4.9203372E-1,-7.114151E-1,-7.697754E-2,-2.270998E-1,1.3458335E-1,1.1166958E0,-2.4851055E-1,-6.198045E-1],"categories":[],"categories_nodes":[],"categories_segments":[],"categories_sizes":[],"default_left":[0,0,0,0,0,0,0,0,0,0,0,0,0,0,0],"id":37,"left_children":[1,3,5,7,9,11,13,-1,-1,-1,-1,-1,-1,-1,-1],"loss_changes":[6.8455244E3,2.8641797E2,4.9376343E3,2.9179688E1,7.462158E0,5.8850146E3,4.818994E1,0E0,0E0,0E0,0E0,0E0,0E0,0E0,0E0],"parents":[2147483647,0,0,1,1,2,2,3,3,4,4,5,5,6,6],"right_children":[2,4,6,8,10,12,14,-1,-1,-1,-1,-1,-1,-1,-1],"split_conditions":[7E0,6E0,2.1E1,5.9E1,4E0,1.7E1,1.19E2,-4.9203372E-1,-7.114151E-1,-7.697754E-2,-2.270998E-1,1.3458335E-1,1.1166958E0,-2.4851055E-1,-6.198045E-1],"split_indices":[2,2,2,0,1,2,0,0,0,0,0,0,0,0,0],"split_type":[0,0,0,0,0,0,0,0,0,0,0,0,0,0,0],"sum_hessian":[1.33E2,4.1E1,9.2E1,3.5E1,6E0,7.7E1,1.5E1,2.3E1,1.2E1,3E0,3E0,5.7E1,2E1,3E0,1.2E1],"tree_param":{"num_deleted":"0","num_feature":"3","num_nodes":"15","size_leaf_vector":"1"}},{"base_weights":[-1.8114232E-2,-1.0112007E1,4.5406127E0,-1.1146954E1,-3.3448508E0,9.287564E-1,9.246606E-1,-4.6845704E-1,-6.785806E-1,-7.409077E-2,-2.1858369E-1,-9.6961015E-1,1.4861955E-1],"categories":[],"categories_nodes":[],"categories_segments":[],"categories_sizes":[],"default_left":[0,0,0,0,0,0,0,0,0,0,0,0,0],"id":38,"left_children":[1,3,5,7,9,-1,11,-1,-1,-1,-1,-1,-1],"loss_changes":[6.211965E3,2.5686816E2,4.7024014E3,2.8026855E1,6.91304E0,0E0,3.1779004E3,0E0,0E0,0E0,0E0,0E0,0E0],"parents":[2147483647,0,0,1,1,2,2,3,3,4,4,6,6],"right_children":[2,4,6,8,10,-1,12,-1,-1,-1,-1,-1,-1],"split_conditions":[7E0,6E0,1E1,5.9E1,4E0,9.287564E-1,1.1E1,-4.6845704E-1,-6.785806E-1,-7.409077E-2,-2.1858369E-1,-9.6961015E-1,1.4861955E-1],"split_indices":[2,2,2,0,1,0,2,0,0,0,0,0,0],"split_type":[0,0,0,0,0,0,0,0,0,0,0,0,0],"sum_hessian":[1.33E2,4.1E1,9.2E1,3.5E1,6E0,1.8E1,7.4E1,2.3E1,1.2E1,3E0,3E0,6E0,6.8E1],"tree_param":{"num_deleted":"0","num_feature":"3","num_nodes":"13","size_leaf_vector":"1"}},{"base_weights":[-2.7148575E-2,-9.640683E0,4.3147397E0,-1.0621466E1,-3.219417E0,7.389062E0,-1.0942254E1,-3.7636063E-1,-5.8409244E-1,-7.1312144E-2,-2.1038686E-1,1.1434569E-1,1.0564425E0,-3.852801E-1,-7.001432E-1],"categories":[],"categories_nodes":[],"categories_segments":[],"categories_sizes":[],"default_left":[0,0,0,0,0,0,0,0,0,0,0,0,0,0,0],"id":39,"left_children":[1,3,5,7,9,11,13,-1,-1,-1,-1,-1,-1,-1,-1],"loss_changes":[5.634877E3,2.3031567E2,4.4430107E3,3.01875E1,6.4043503E0,5.4196704E3,5.0597656E1,0E0,0E0,0E0,0E0,0E0,0E0,0E0,0E0],"parents":[2147483647,0,0,1,1,2,2,3,3,4,4,5,5,6,6],"right_children":[2,4,6,8,10,12,14,-1,-1,-1,-1,-1,-1,-1,-1],"split_conditions":[7E0,6E0,2.1E1,5E1,4E0,1.7E1,5E0,-3.7636063E-1,-5.8409244E-1,-7.1312144E-2,-2.1038686E-1,1.1434569E-1,1.0564425E0,-3.852801E-1,-7.001432E-1],"split_indices":[2,2,2,0,1,2,1,0,0,0,0,0,0,0,0],"split_type":[0,0,0,0,0,0,0,0,0,0,0,0,0,0,0],"sum_hessian":[1.33E2,4.1E1,9.2E1,3.5E1,6E0,7.7E1,1.5E1,1.1E1,2.4E1,3E0,3E0,5.7E1,2E1,9E0,6E0],"tree_param":{"num_deleted":"0","num_feature":"3","num_nodes":"15","size_leaf_vector":"1"}},{"base_weights":[-3.442508E-2,-9.188225E0,4.0999193E0,-1.0117073E1,-3.098685E0,1.7586922E1,6.285461E-1,-4.2278287E-1,-6.203034E-1,-6.863766E-2,-2.0249729E-1,7.2440785E-1,1.1682917E0,-3.5297704E-1,2.814426E-1],"categories":[],"categories_nodes":[],"categories_segments":[],"categories_sizes":[],"default_left":[0,0,0,0,0,0,0,0,0,0,0,0,0,0,0],"id":40,"left_children":[1,3,5,7,9,11,13,-1,-1,-1,-1,-1,-1,-1,-1],"loss_changes":[5.108896E3,2.0621313E2,4.3430586E3,3.2005615E1,5.9331055E0,1.7143555E0,2.9229458E3,0E0,0E0,0E0,0E0,0E0,0E0,0E0,0E0],"parents":[2147483647,0,0,1,1,2,2,3,3,4,4,5,5,6,6],"right_children":[2,4,6,8,10,12,14,-1,-1,-1,-1,-1,-1,-1,-1],"split_conditions":[7E0,6E0,1E1,5.9E1,4E0,1.97E2,1.5E1,-4.2278287E-1,-6.203034E-1,-6.863766E-2,-2.0249729E-1,7.2440785E-1,1.1682917E0,-3.5297704E-1,2.814426E-1],"split_indices":[2,2,2,0,1,0,2,0,0,0,0,0,0,0,0],"split_type":[0,0,0,0,0,0,0,0,0,0,0,0,0,0,0],"sum_hessian":[1.33E2,4.1E1,9.2E1,3.5E1,6E0,1.8E1,7.4E1,2.3E1,1.2E1,3E0,3E0,1.4E1,4E0,2.9E1,4.5E1],"tree_param":{"num_deleted":"0","num_feature":"3","num_nodes":"15","size_leaf_vector":"1"}},{"base_weights":[-2.8921839E-2,-8.760104E0,3.9145038E0,-9.640194E0,-2.982485E0,6.867669E0,-1.0726833E1,-4.0252447E-1,-5.9167403E-1,-6.606388E-2,-1.9490357E-1,1.0235359E-1,9.927334E-1,-2.3299943E-1,-5.884207E-1],"categories":[],"categories_nodes":[],"categories_segments":[],"categories_sizes":[],"default_left":[0,0,0,0,0,0,0,0,0,0,0,0,0,0,0],"id":41,"left_children":[1,3,5,7,9,11,13,-1,-1,-1,-1,-1,-1,-1,-1],"loss_changes":[4.6480146E3,1.8481079E2,4.094829E3,3.0255127E1,5.496418E0,4.8425527E3,4.6264893E1,0E0,0E0,0E0,0E0,0E0,0E0,0E0,0E0],"parents":[2147483647,0,0,1,1,2,2,3,3,4,4,5,5,6,6],"right_children":[2,4,6,8,10,12,14,-1,-1,-1,-1,-1,-1,-1,-1],"split_conditions":[7E0,6E0,2.1E1,5.9E1,4E0,1.7E1,1.19E2,-4.0252447E-1,-5.9167403E-1,-6.606388E-2,-1.9490357E-1,1.0235359E-1,9.927334E-1,-2.3299943E-1,-5.884207E-1],"split_indices":[2,2,2,0,1,2,0,0,0,0,0,0,0,0,0],"split_type":[0,0,0,0,0,0,0,0,0,0,0,0,0,0,0],"sum_hessian":[1.33E2,4.1E1,9.2E1,3.5E1,6E0,7.7E1,1.5E1,2.3E1,1.2E1,3E0,3E0,5.7E1,2E1,3E0,1.2E1],"tree_param":{"num_deleted":"0","num_feature":"3","num_nodes":"15","size_leaf_vector":"1"}},{"base_weights":[-3.4801256E-2,-8.351983E0,3.7217197E0,-9.185801E0,-2.8706403E0,1.671022E1,3.8167644E-1,-3.212842E-1,-5.0716126E-1,-6.3586235E-2,-1.875948E-1,6.858254E-1,1.1174659E0,-9.222153E-1,1.1430136E-1],"categories":[],"categories_nodes":[],"categories_segments":[],"categories_sizes":[],"default_left":[0,0,0,0,0,0,0,0,0,0,0,0,0,0,0],"id":42,"left_children":[1,3,5,7,9,11,13,-1,-1,-1,-1,-1,-1,-1,-1],"loss_changes":[4.2177354E3,1.6558936E2,4.0281628E3,2.9956299E1,5.0919952E0,1.4200195E1,2.7310095E3,0E0,0E0,0E0,0E0,0E0,0E0,0E0,0E0],"parents":[2147483647,0,0,1,1,2,2,3,3,4,4,5,5,6,6],"right_children":[2,4,6,8,10,12,14,-1,-1,-1,-1,-1,-1,-1,-1],"split_conditions":[7E0,6E0,1E1,5E1,4E0,1.97E2,1.1E1,-3.212842E-1,-5.0716126E-1,-6.3586235E-2,-1.875948E-1,6.858254E-1,1.1174659E0,-9.222153E-1,1.1430136E-1],"split_indices":[2,2,2,0,1,0,2,0,0,0,0,0,0,0,0],"split_type":[0,0,0,0,0,0,0,0,0,0,0,0,0,0,0],"sum_hessian":[1.33E2,4.1E1,9.2E1,3.5E1,6E0,1.8E1,7.4E1,1.1E1,2.4E1,3E0,3E0,1.4E1,4E0,6E0,6.8E1],"tree_param":{"num_deleted":"0","num_feature":"3","num_nodes":"15","size_leaf_vector":"1"}},{"base_weights":[-3.3690978E-2,-7.96009E0,3.5463355E0,-8.749523E0,-2.762994E0,6.351192E0,-1.0348987E1,-3.6319503E-1,-5.409585E-1,-6.120186E-2,-1.8056011E-1,8.6711876E-2,9.400172E-1,-3.6104915E-1,-6.6695684E-1],"categories":[],"categories_nodes":[],"categories_segments":[],"categories_sizes":[],"default_left":[0,0,0,0,0,0,0,0,0,0,0,0,0,0,0],"id":43,"left_children":[1,3,5,7,9,11,13,-1,-1,-1,-1,-1,-1,-1,-1],"loss_changes":[3.8307097E3,1.4814111E2,3.6903462E3,3.2100098E1,4.717251E0,4.4506143E3,5.3329712E1,0E0,0E0,0E0,0E0,0E0,0E0,0E0,0E0],"parents":[2147483647,0,0,1,1,2,2,3,3,4,4,5,5,6,6],"right_children":[2,4,6,8,10,12,14,-1,-1,-1,-1,-1,-1,-1,-1],"split_conditions":[7E0,6E0,2.1E1,5.9E1,4E0,1.7E1,5E0,-3.6319503E-1,-5.409585E-1,-6.120186E-2,-1.8056011E-1,8.6711876E-2,9.400172E-1,-3.6104915E-1,-6.6695684E-1],"split_indices":[2,2,2,0,1,2,1,0,0,0,0,0,0,0,0],"split_type":[0,0,0,0,0,0,0,0,0,0,0,0,0,0,0],"sum_hessian":[1.33E2,4.1E1,9.2E1,3.5E1,6E0,7.7E1,1.5E1,2.3E1,1.2E1,3E0,3E0,5.7E1,2E1,9E0,6E0],"tree_param":{"num_deleted":"0","num_feature":"3","num_nodes":"15","size_leaf_vector":"1"}},{"base_weights":[-4.056908E-2,-7.5893707E0,3.3690033E0,-8.337164E0,-2.6593823E0,1.5887472E1,1.5273784E-1,-3.4579203E-1,-5.159912E-1,-5.8906745E-2,-1.7378922E-1,1.1218866E0,6.62847E-1,-8.864083E-1,9.822645E-2],"categories":[],"categories_nodes":[],"categories_segments":[],"categories_sizes":[],"default_left":[0,0,0,0,0,0,0,0,0,0,0,0,0,0,0],"id":44,"left_children":[1,3,5,7,9,11,13,-1,-1,-1,-1,-1,-1,-1,-1],"loss_changes":[3.4744856E3,1.3266577E2,3.7420063E3,3.007788E1,4.3701096E0,2.9927246E1,2.4645625E3,0E0,0E0,0E0,0E0,0E0,0E0,0E0,0E0],"parents":[2147483647,0,0,1,1,2,2,3,3,4,4,5,5,6,6],"right_children":[2,4,6,8,10,12,14,-1,-1,-1,-1,-1,-1,-1,-1],"split_conditions":[7E0,6E0,1E1,5.9E1,4E0,2E0,1.1E1,-3.4579203E-1,-5.159912E-1,-5.8906745E-2,-1.7378922E-1,1.1218866E0,6.62847E-1,-8.864083E-1,9.822645E-2],"split_indices":[2,2,2,0,1,1,2,0,0,0,0,0,0,0,0],"split_type":[0,0,0,0,0,0,0,0,0,0,0,0,0,0,0],"sum_hessian":[1.33E2,4.1E1,9.2E1,3.5E1,6E0,1.8E1,7.4E1,2.3E1,1.2E1,3E0,3E0,3E0,1.5E1,6E0,6.8E1],"tree_param":{"num_deleted":"0","num_feature":"3","num_nodes":"15","size_leaf_vector":"1"}},{"base_weights":[-3.9267953E-2,-7.2359614E0,3.211274E0,-7.9442444E0,-2.5596554E0,1.5187036E1,1.3459738E-1,-2.7406353E-1,-4.4043514E-1,-5.6697465E-2,-1.6727237E-1,6.1731094E-1,1.0336041E0,-3.3511528E-1,2.2952604E-1],"categories":[],"categories_nodes":[],"categories_segments":[],"categories_sizes":[],"default_left":[0,0,0,0,0,0,0,0,0,0,0,0,0,0,0],"id":45,"left_children":[1,3,5,7,9,11,13,-1,-1,-1,-1,-1,-1,-1,-1],"loss_changes":[3.1579194E3,1.18775635E2,3.4245918E3,2.8365967E1,4.0485916E0,4.0836426E1,2.3156206E3,0E0,0E0,0E0,0E0,0E0,0E0,0E0,0E0],"parents":[2147483647,0,0,1,1,2,2,3,3,4,4,5,5,6,6],"right_children":[2,4,6,8,10,12,14,-1,-1,-1,-1,-1,-1,-1,-1],"split_conditions":[7E0,6E0,1E1,5E1,4E0,1.97E2,1.5E1,-2.7406353E-1,-4.4043514E-1,-5.6697465E-2,-1.6727237E-1,6.1731094E-1,1.0336041E0,-3.3511528E-1,2.2952604E-1],"split_indices":[2,2,2,0,1,0,2,0,0,0,0,0,0,0,0],"split_type":[0,0,0,0,0,0,0,0,0,0,0,0,0,0,0],"sum_hessian":[1.33E2,4.1E1,9.2E1,3.5E1,6E0,1.8E1,7.4E1,1.1E1,2.4E1,3E0,3E0,1.4E1,4E0,2.9E1,4.5E1],"tree_param":{"num_deleted":"0","num_feature":"3","num_nodes":"15","size_leaf_vector":"1"}},{"base_weights":[-3.277511E-2,-6.896509E0,3.0673282E0,-5.391245E0,-4.7609743E-1,5.7501307E0,-1.0203043E1,-3.1193143E-1,-5.5158492E-2,6.8153635E-2,8.796477E-1,-2.1965142E-1,-5.6029457E-1],"categories":[],"categories_nodes":[],"categories_segments":[],"categories_sizes":[],"default_left":[0,0,0,0,0,0,0,0,0,0,0,0,0],"id":46,"left_children":[1,3,5,7,-1,9,11,-1,-1,-1,-1,-1,-1],"loss_changes":[2.8724438E3,1.1464783E2,3.3696353E3,9.849335E1,0E0,4.0285212E3,4.399707E1,0E0,0E0,0E0,0E0,0E0,0E0],"parents":[2147483647,0,0,1,1,2,2,3,3,5,5,6,6],"right_children":[2,4,6,8,-1,10,12,-1,-1,-1,-1,-1,-1],"split_conditions":[7E0,5.9E1,2.1E1,6E0,-4.7609743E-1,1.7E1,1.19E2,-3.1193143E-1,-5.5158492E-2,6.8153635E-2,8.796477E-1,-2.1965142E-1,-5.6029457E-1],"split_indices":[2,0,2,2,0,2,0,0,0,0,0,0,0],"split_type":[0,0,0,0,0,0,0,0,0,0,0,0,0],"sum_hessian":[1.33E2,4.1E1,9.2E1,2.8E1,1.3E1,7.7E1,1.5E1,2.3E1,5E0,5.7E1,2E1,3E0,1.2E1],"tree_param":{"num_deleted":"0","num_feature":"3","num_nodes":"13","size_leaf_vector":"1"}},{"base_weights":[-3.6180753E-2,-6.571759E0,2.9157598E0,-5.1343403E0,-4.539929E-1,1.4450003E1,-4.5125123E-2,-2.969847E-1,-5.2860137E-2,1.0437034E0,5.9704304E-1,-8.369784E-1,8.24584E-2],"categories":[],"categories_nodes":[],"categories_segments":[],"categories_sizes":[],"default_left":[0,0,0,0,0,0,0,0,0,0,0,0,0],"id":47,"left_children":[1,3,5,7,-1,9,11,-1,-1,-1,-1,-1,-1],"loss_changes":[2.6043755E3,1.0479883E2,3.1767476E3,8.894318E1,0E0,5.700464E1,2.149002E3,0E0,0E0,0E0,0E0,0E0,0E0],"parents":[2147483647,0,0,1,1,2,2,3,3,5,5,6,6],"right_children":[2,4,6,8,-1,10,12,-1,-1,-1,-1,-1,-1],"split_conditions":[7E0,5.9E1,1E1,6E0,-4.539929E-1,2E0,1.1E1,-2.969847E-1,-5.2860137E-2,1.0437034E0,5.9704304E-1,-8.369784E-1,8.24584E-2],"split_indices":[2,0,2,2,0,1,2,0,0,0,0,0,0],"split_type":[0,0,0,0,0,0,0,0,0,0,0,0,0],"sum_hessian":[1.33E2,4.1E1,9.2E1,2.8E1,1.3E1,1.8E1,7.4E1,2.3E1,5E0,3E0,1.5E1,6E0,6.8E1],"tree_param":{"num_deleted":"0","num_feature":"3","num_nodes":"13","size_leaf_vector":"1"}},{"base_weights":[-3.375714E-2,-6.2623096E0,2.7795005E0,-4.889687E0,-4.3291458E-1,5.328163E0,-9.818948E0,-2.8275415E-1,-5.065778E-2,5.636807E-2,8.3383274E-1,-3.3975106E-1,-6.3680685E-1],"categories":[],"categories_nodes":[],"categories_segments":[],"categories_sizes":[],"default_left":[0,0,0,0,0,0,0,0,0,0,0,0,0],"id":48,"left_children":[1,3,5,7,-1,9,11,-1,-1,-1,-1,-1,-1],"loss_changes":[2.3654243E3,9.579224E1,3.0384717E3,8.031592E1,0E0,3.699675E3,5.4599487E1,0E0,0E0,0E0,0E0,0E0,0E0],"parents":[2147483647,0,0,1,1,2,2,3,3,5,5,6,6],"right_children":[2,4,6,8,-1,10,12,-1,-1,-1,-1,-1,-1],"split_conditions":[7E0,5.9E1,2.1E1,6E0,-4.3291458E-1,1.7E1,5E0,-2.8275415E-1,-5.065778E-2,5.636807E-2,8.3383274E-1,-3.3975106E-1,-6.3680685E-1],"split_indices":[2,0,2,2,0,2,1,0,0,0,0,0,0],"split_type":[0,0,0,0,0,0,0,0,0,0,0,0,0],"sum_hessian":[1.33E2,4.1E1,9.2E1,2.8E1,1.3E1,7.7E1,1.5E1,2.3E1,5E0,5.7E1,2E1,9E0,6E0],"tree_param":{"num_deleted":"0","num_feature":"3","num_nodes":"13","size_leaf_vector":"1"}},{"base_weights":[-3.843151E-2,-5.9674406E0,2.6395986E0,-4.6567E0,-4.12815E-1,1.3760456E1,-2.1287984E-1,-2.6920557E-1,-4.854698E-2,1.002451E0,5.6641436E-1,-8.035237E-1,6.994734E-2],"categories":[],"categories_nodes":[],"categories_segments":[],"categories_sizes":[],"default_left":[0,0,0,0,0,0,0,0,0,0,0,0,0],"id":49,"left_children":[1,3,5,7,-1,9,11,-1,-1,-1,-1,-1,-1],"loss_changes":[2.1434124E3,8.755713E1,2.9530762E3,7.2523254E1,0E0,6.34812E1,1.9394587E3,0E0,0E0,0E0,0E0,0E0,0E0],"parents":[2147483647,0,0,1,1,2,2,3,3,5,5,6,6],"right_children":[2,4,6,8,-1,10,12,-1,-1,-1,-1,-1,-1],"split_conditions":[7E0,5.9E1,1E1,6E0,-4.12815E-1,2E0,1.1E1,-2.6920557E-1,-4.854698E-2,1.002451E0,5.6641436E-1,-8.035237E-1,6.994734E-2],"split_indices":[2,0,2,2,0,1,2,0,0,0,0,0,0],"split_type":[0,0,0,0,0,0,0,0,0,0,0,0,0],"sum_hessian":[1.33E2,4.1E1,9.2E1,2.8E1,1.3E1,1.8E1,7.4E1,2.3E1,5E0,3E0,1.5E1,6E0,6.8E1],"tree_param":{"num_deleted":"0","num_feature":"3","num_nodes":"13","size_leaf_vector":"1"}},{"base_weights":[-3.572817E-2,-4.3270717E0,3.397823E0,-6.1153026E0,-2.0649757E0,5.292625E0,-9.447653E0,-3.4725514E-1,-6.1184186E-2,2.0186577E-2,-3.660775E-1,5.2458998E-2,7.500045E-1,-3.129083E-1,-6.333672E-1],"categories":[],"categories_nodes":[],"categories_segments":[],"categories_sizes":[],"default_left":[0,0,0,0,0,0,0,0,0,0,0,0,0,0,0],"id":50,"left_children":[1,3,5,7,9,11,13,-1,-1,-1,-1,-1,-1,-1,-1],"loss_changes":[1.989132E3,2.3008118E2,1.8754756E3,1.2545044E2,3.6631036E2,2.7030063E3,2.3417236E1,0E0,0E0,0E0,0E0,0E0,0E0,0E0,0E0],"parents":[2147483647,0,0,1,1,2,2,3,3,4,4,5,5,6,6],"right_children":[2,4,6,8,10,12,14,-1,-1,-1,-1,-1,-1,-1,-1],"split_conditions":[1.27E2,6E0,2.1E1,6E0,1.24E2,1.7E1,5E0,-3.4725514E-1,-6.1184186E-2,2.0186577E-2,-3.660775E-1,5.2458998E-2,7.500045E-1,-3.129083E-1,-6.333672E-1],"split_indices":[0,2,2,1,0,2,1,0,0,0,0,0,0,0,0],"split_type":[0,0,0,0,0,0,0,0,0,0,0,0,0,0,0],"sum_hessian":[1.33E2,5.9E1,7.4E1,3.2E1,2.7E1,6.5E1,9E0,2.7E1,5E0,1.9E1,8E0,4.6E1,1.9E1,6E0,3E0],"tree_param":{"num_deleted":"0","num_feature":"3","num_nodes":"15","size_leaf_vector":"1"}},{"base_weights":[-4.064412E-2,-4.1232905E0,3.226015E0,-5.8219137E0,-1.9740819E0,5.040153E0,-9.069898E0,-3.3051246E-1,-5.8634855E-2,1.980695E-3,-4.0104142E-1,4.989182E-2,7.143795E-1,-2.9949778E-1,-6.096161E-1],"categories":[],"categories_nodes":[],"categories_segments":[],"categories_sizes":[],"default_left":[0,0,0,0,0,0,0,0,0,0,0,0,0,0,0],"id":51,"left_children":[1,3,5,7,9,11,13,-1,-1,-1,-1,-1,-1,-1,-1],"loss_changes":[1.8004083E3,2.0754877E2,1.7186997E3,1.13197876E2,3.4125433E2,2.452894E3,2.3137451E1,0E0,0E0,0E0,0E0,0E0,0E0,0E0,0E0],"parents":[2147483647,0,0,1,1,2,2,3,3,4,4,5,5,6,6],"right_children":[2,4,6,8,10,12,14,-1,-1,-1,-1,-1,-1,-1,-1],"split_conditions":[1.27E2,6E0,2.1E1,6E0,1.8E1,1.7E1,5E0,-3.3051246E-1,-5.8634855E-2,1.980695E-3,-4.0104142E-1,4.989182E-2,7.143795E-1,-2.9949778E-1,-6.096161E-1],"split_indices":[0,2,2,1,2,2,1,0,0,0,0,0,0,0,0],"split_type":[0,0,0,0,0,0,0,0,0,0,0,0,0,0,0],"sum_hessian":[1.33E2,5.9E1,7.4E1,3.2E1,2.7E1,6.5E1,9E0,2.7E1,5E0,2.1E1,6E0,4.6E1,1.9E1,6E0,3E0],"tree_param":{"num_deleted":"0","num_feature":"3","num_nodes":"15","size_leaf_vector":"1"}},{"base_weights":[-4.557726E-2,-5.246967E0,2.3039274E0,-3.9780602E0,-3.7503165E-1,1.306225E1,-4.5223328E-1,-2.2847922E-1,-4.7447715E-2,5.209451E-1,9.1899234E-1,-7.7347344E-1,5.3890426E-2],"categories":[],"categories_nodes":[],"categories_segments":[],"categories_sizes":[],"default_left":[0,0,0,0,0,0,0,0,0,0,0,0,0],"id":52,"left_children":[1,3,5,7,-1,9,11,-1,-1,-1,-1,-1,-1],"loss_changes":[1.6496611E3,9.026904E1,2.7635122E3,4.762558E1,0E0,7.557129E1,1.7399481E3,0E0,0E0,0E0,0E0,0E0,0E0],"parents":[2147483647,0,0,1,1,2,2,3,3,5,5,6,6],"right_children":[2,4,6,8,-1,10,12,-1,-1,-1,-1,-1,-1],"split_conditions":[7E0,5.9E1,1E1,6E0,-3.7503165E-1,1.97E2,1.1E1,-2.2847922E-1,-4.7447715E-2,5.209451E-1,9.1899234E-1,-7.7347344E-1,5.3890426E-2],"split_indices":[2,0,2,2,0,0,2,0,0,0,0,0,0],"split_type":[0,0,0,0,0,0,0,0,0,0,0,0,0],"sum_hessian":[1.33E2,4.1E1,9.2E1,2.8E1,1.3E1,1.8E1,7.4E1,2.3E1,5E0,1.4E1,4E0,6E0,6.8E1],"tree_param":{"num_deleted":"0","num_feature":"3","num_nodes":"13","size_leaf_vector":"1"}},{"base_weights":[-4.2783253E-2,-3.8028677E0,2.9658546E0,-5.281087E0,-1.924864E0,4.6969285E0,-8.755816E0,-3.014675E-1,-4.545053E-2,2.1775322E-2,-3.4781292E-1,4.1322123E-2,6.778862E-1,-2.8897184E-1,-5.887764E-1],"categories":[],"categories_nodes":[],"categories_segments":[],"categories_sizes":[],"default_left":[0,0,0,0,0,0,0,0,0,0,0,0,0,0,0],"id":53,"left_children":[1,3,5,7,9,11,13,-1,-1,-1,-1,-1,-1,-1,-1],"loss_changes":[1.5271849E3,1.5640076E2,1.562956E3,1.0247754E2,3.3555618E2,2.2523037E3,2.1822205E1,0E0,0E0,0E0,0E0,0E0,0E0,0E0,0E0],"parents":[2147483647,0,0,1,1,2,2,3,3,4,4,5,5,6,6],"right_children":[2,4,6,8,10,12,14,-1,-1,-1,-1,-1,-1,-1,-1],"split_conditions":[1.27E2,6E0,2.1E1,6E0,1.24E2,1.7E1,5E0,-3.014675E-1,-4.545053E-2,2.1775322E-2,-3.4781292E-1,4.1322123E-2,6.778862E-1,-2.8897184E-1,-5.887764E-1],"split_indices":[0,2,2,1,0,2,1,0,0,0,0,0,0,0,0],"split_type":[0,0,0,0,0,0,0,0,0,0,0,0,0,0,0],"sum_hessian":[1.33E2,5.9E1,7.4E1,3.2E1,2.7E1,6.5E1,9E0,2.7E1,5E0,1.9E1,8E0,4.6E1,1.9E1,6E0,3E0],"tree_param":{"num_deleted":"0","num_feature":"3","num_nodes":"15","size_leaf_vector":"1"}},{"base_weights":[-4.6848953E-2,-3.6239402E0,2.8154488E0,-5.0275445E0,-1.8402655E0,4.4729795E0,-8.405802E0,-2.8693244E-1,-4.355669E-2,4.3793763E-3,-3.8181686E-1,3.930004E-2,6.4568657E-1,-2.7658734E-1,-5.666973E-1],"categories":[],"categories_nodes":[],"categories_segments":[],"categories_sizes":[],"default_left":[0,0,0,0,0,0,0,0,0,0,0,0,0,0,0],"id":54,"left_children":[1,3,5,7,9,11,13,-1,-1,-1,-1,-1,-1,-1,-1],"loss_changes":[1.3821888E3,1.4096234E2,1.4325667E3,9.253705E1,3.1354013E2,2.0438274E3,2.145996E1,0E0,0E0,0E0,0E0,0E0,0E0,0E0,0E0],"parents":[2147483647,0,0,1,1,2,2,3,3,4,4,5,5,6,6],"right_children":[2,4,6,8,10,12,14,-1,-1,-1,-1,-1,-1,-1,-1],"split_conditions":[1.27E2,6E0,2.1E1,6E0,1.8E1,1.7E1,5E0,-2.8693244E-1,-4.355669E-2,4.3793763E-3,-3.8181686E-1,3.930004E-2,6.4568657E-1,-2.7658734E-1,-5.666973E-1],"split_indices":[0,2,2,1,2,2,1,0,0,0,0,0,0,0,0],"split_type":[0,0,0,0,0,0,0,0,0,0,0,0,0,0,0],"sum_hessian":[1.33E2,5.9E1,7.4E1,3.2E1,2.7E1,6.5E1,9E0,2.7E1,5E0,2.1E1,6E0,4.6E1,1.9E1,6E0,3E0],"tree_param":{"num_deleted":"0","num_feature":"3","num_nodes":"15","size_leaf_vector":"1"}},{"base_weights":[-5.0973438E-2,-4.6207585E0,2.0133486E0,-3.3953998E0,-3.4144732E-1,1.2411404E1,-6.476701E-1,-7.3498725E-3,-1.8822809E-1,9.285103E-1,5.0479954E-1,-7.437803E-1,4.025651E-2],"categories":[],"categories_nodes":[],"categories_segments":[],"categories_sizes":[],"default_left":[0,0,0,0,0,0,0,0,0,0,0,0,0],"id":55,"left_children":[1,3,5,7,-1,9,11,-1,-1,-1,-1,-1,-1],"loss_changes":[1.2733931E3,9.045758E1,2.5812942E3,3.4223053E1,0E0,8.345874E1,1.562253E3,0E0,0E0,0E0,0E0,0E0,0E0],"parents":[2147483647,0,0,1,1,2,2,3,3,5,5,6,6],"right_children":[2,4,6,8,-1,10,12,-1,-1,-1,-1,-1,-1],"split_conditions":[7E0,5.9E1,1E1,4.5E1,-3.4144732E-1,2E0,1.1E1,-7.3498725E-3,-1.8822809E-1,9.285103E-1,5.0479954E-1,-7.437803E-1,4.025651E-2],"split_indices":[2,0,2,0,0,1,2,0,0,0,0,0,0],"split_type":[0,0,0,0,0,0,0,0,0,0,0,0,0],"sum_hessian":[1.33E2,4.1E1,9.2E1,2.8E1,1.3E1,1.8E1,7.4E1,3E0,2.5E1,3E0,1.5E1,6E0,6.8E1],"tree_param":{"num_deleted":"0","num_feature":"3","num_nodes":"13","size_leaf_vector":"1"}},{"base_weights":[-4.6985283E-2,1.0602491E0,-8.279104E0,-1.5258785E0,1.3201506E1,-5.5567093E0,-5.492756E-1,3.37948E-2,-2.3951967E-1,1.1241175E0,2.1836713E-1,-4.3400022E-1,-1.4890769E-1],"categories":[],"categories_nodes":[],"categories_segments":[],"categories_sizes":[],"default_left":[0,0,0,0,0,0,0,0,0,0,0,0,0],"id":56,"left_children":[1,3,5,7,9,11,-1,-1,-1,-1,-1,-1,-1],"loss_changes":[1.2301725E3,3.7566055E3,5.684326E1,7.1482263E2,1.6235703E3,5.4685455E1,0E0,0E0,0E0,0E0,0E0,0E0,0E0],"parents":[2147483647,0,0,1,1,2,2,3,3,4,4,5,5],"right_children":[2,4,6,8,10,12,-1,-1,-1,-1,-1,-1,-1],"split_conditions":[2.1E1,1.7E1,5E0,1E1,1.84E2,3E0,-5.492756E-1,3.37948E-2,-2.3951967E-1,1.1241175E0,2.1836713E-1,-4.3400022E-1,-1.4890769E-1],"split_indices":[2,2,1,2,0,1,0,0,0,0,0,0,0],"split_type":[0,0,0,0,0,0,0,0,0,0,0,0,0],"sum_hessian":[1.33E2,1.18E2,1.5E1,9.8E1,2E1,9E0,6E0,5.9E1,3.9E1,9E0,1.1E1,3E0,6E0],"tree_param":{"num_deleted":"0","num_feature":"3","num_nodes":"13","size_leaf_vector":"1"}},{"base_weights":[-4.4603005E-2,-4.435497E0,1.9388608E0,-3.2650025E0,-3.2716355E-1,1.1834246E1,-5.938214E-1,-8.341503E-3,-1.8080337E-1,4.6650577E-1,8.489893E-1,-7.0163924E-1,3.890789E-2],"categories":[],"categories_nodes":[],"categories_segments":[],"categories_sizes":[],"default_left":[0,0,0,0,0,0,0,0,0,0,0,0,0],"id":57,"left_children":[1,3,5,7,-1,9,11,-1,-1,-1,-1,-1,-1],"loss_changes":[1.1756298E3,8.225598E1,2.337781E3,3.0938812E1,0E0,8.6393555E1,1.3937681E3,0E0,0E0,0E0,0E0,0E0,0E0],"parents":[2147483647,0,0,1,1,2,2,3,3,5,5,6,6],"right_children":[2,4,6,8,-1,10,12,-1,-1,-1,-1,-1,-1],"split_conditions":[7E0,5.9E1,1E1,4.5E1,-3.2716355E-1,1.97E2,1.1E1,-8.341503E-3,-1.8080337E-1,4.6650577E-1,8.489893E-1,-7.0163924E-1,3.890789E-2],"split_indices":[2,0,2,0,0,0,2,0,0,0,0,0,0],"split_type":[0,0,0,0,0,0,0,0,0,0,0,0,0],"sum_hessian":[1.33E2,4.1E1,9.2E1,2.8E1,1.3E1,1.8E1,7.4E1,3E0,2.5E1,1.4E1,4E0,6E0,6.8E1],"tree_param":{"num_deleted":"0","num_feature":"3","num_nodes":"13","size_leaf_vector":"1"}},{"base_weights":[-4.135496E-2,1.02535E0,-7.9723883E0,-1.4335119E0,1.2568301E1,-5.37218E0,-5.2740294E-1,3.119254E-2,-2.241859E-1,1.0717814E0,2.065752E-1,-4.1918412E-1,-1.4419338E-1],"categories":[],"categories_nodes":[],"categories_segments":[],"categories_sizes":[],"default_left":[0,0,0,0,0,0,0,0,0,0,0,0,0],"id":58,"left_children":[1,3,5,7,9,11,-1,-1,-1,-1,-1,-1,-1],"loss_changes":[1.1418242E3,3.3955369E3,5.0490356E1,6.240598E2,1.4824873E3,5.075815E1,0E0,0E0,0E0,0E0,0E0,0E0,0E0],"parents":[2147483647,0,0,1,1,2,2,3,3,4,4,5,5],"right_children":[2,4,6,8,10,12,-1,-1,-1,-1,-1,-1,-1],"split_conditions":[2.1E1,1.7E1,5E0,1E1,1.84E2,3E0,-5.2740294E-1,3.119254E-2,-2.241859E-1,1.0717814E0,2.065752E-1,-4.1918412E-1,-1.4419338E-1],"split_indices":[2,2,1,2,0,1,0,0,0,0,0,0,0],"split_type":[0,0,0,0,0,0,0,0,0,0,0,0,0],"sum_hessian":[1.33E2,1.18E2,1.5E1,9.8E1,2E1,9E0,6E0,5.9E1,3.9E1,9E0,1.1E1,3E0,6E0],"tree_param":{"num_deleted":"0","num_feature":"3","num_nodes":"13","size_leaf_vector":"1"}},{"base_weights":[-3.932745E-2,-4.2564635E0,1.8656085E0,-3.1383898E0,-3.1342202E-1,1.1282223E1,-5.4480857E-1,-1.8040206E-1,-3.683599E-2,8.6419815E-1,4.5383245E-1,-6.6196096E-1,3.7546296E-2],"categories":[],"categories_nodes":[],"categories_segments":[],"categories_sizes":[],"default_left":[0,0,0,0,0,0,0,0,0,0,0,0,0],"id":59,"left_children":[1,3,5,7,-1,9,11,-1,-1,-1,-1,-1,-1],"loss_changes":[1.084413E3,7.48078E1,2.1170576E3,3.0052368E1,0E0,9.462793E1,1.2435856E3,0E0,0E0,0E0,0E0,0E0,0E0],"parents":[2147483647,0,0,1,1,2,2,3,3,5,5,6,6],"right_children":[2,4,6,8,-1,10,12,-1,-1,-1,-1,-1,-1],"split_conditions":[7E0,5.9E1,1E1,6E0,-3.1342202E-1,2E0,1.1E1,-1.8040206E-1,-3.683599E-2,8.6419815E-1,4.5383245E-1,-6.6196096E-1,3.7546296E-2],"split_indices":[2,0,2,2,0,1,2,0,0,0,0,0,0],"split_type":[0,0,0,0,0,0,0,0,0,0,0,0,0],"sum_hessian":[1.33E2,4.1E1,9.2E1,2.8E1,1.3E1,1.8E1,7.4E1,2.3E1,5E0,3E0,1.5E1,6E0,6.8E1],"tree_param":{"num_deleted":"0","num_feature":"3","num_nodes":"13","size_leaf_vector":"1"}},{"base_weights":[-3.614733E-2,9.915175E-1,-7.677145E0,-1.3462061E0,1.1964999E1,-5.1937027E0,-5.064092E-1,2.8832212E-2,-2.0984133E-1,1.0218616E0,1.9538613E-1,-4.0487272E-1,-1.3962294E-1],"categories":[],"categories_nodes":[],"categories_segments":[],"categories_sizes":[],"default_left":[0,0,0,0,0,0,0,0,0,0,0,0,0],"id":60,"left_children":[1,3,5,7,9,11,-1,-1,-1,-1,-1,-1,-1],"loss_changes":[1.0598315E3,3.0688105E3,4.478949E1,5.4507043E2,1.3536624E3,4.711435E1,0E0,0E0,0E0,0E0,0E0,0E0,0E0],"parents":[2147483647,0,0,1,1,2,2,3,3,4,4,5,5],"right_children":[2,4,6,8,10,12,-1,-1,-1,-1,-1,-1,-1],"split_conditions":[2.1E1,1.7E1,5E0,1E1,1.84E2,3E0,-5.064092E-1,2.8832212E-2,-2.0984133E-1,1.0218616E0,1.9538613E-1,-4.0487272E-1,-1.3962294E-1],"split_indices":[2,2,1,2,0,1,0,0,0,0,0,0,0],"split_type":[0,0,0,0,0,0,0,0,0,0,0,0,0],"sum_hessian":[1.33E2,1.18E2,1.5E1,9.8E1,2E1,9E0,6E0,5.9E1,3.9E1,9E0,1.1E1,3E0,6E0],"tree_param":{"num_deleted":"0","num_feature":"3","num_nodes":"13","size_leaf_vector":"1"}},{"base_weights":[-3.4451842E-2,-4.0844216E0,1.7949373E0,-3.0168009E0,-3.002089E-1,1.0760165E1,-5.0018615E-1,-5.309105E-3,-1.6742788E-1,8.307093E-1,4.3120748E-1,-6.2459826E-1,3.6181014E-2],"categories":[],"categories_nodes":[],"categories_segments":[],"categories_sizes":[],"default_left":[0,0,0,0,0,0,0,0,0,0,0,0,0],"id":61,"left_children":[1,3,5,7,-1,9,11,-1,-1,-1,-1,-1,-1],"loss_changes":[1.00013336E3,6.796863E1,1.9189783E3,2.764737E1,0E0,9.4298096E1,1.1097107E3,0E0,0E0,0E0,0E0,0E0,0E0],"parents":[2147483647,0,0,1,1,2,2,3,3,5,5,6,6],"right_children":[2,4,6,8,-1,10,12,-1,-1,-1,-1,-1,-1],"split_conditions":[7E0,5.9E1,1E1,4.5E1,-3.002089E-1,2E0,1.1E1,-5.309105E-3,-1.6742788E-1,8.307093E-1,4.3120748E-1,-6.2459826E-1,3.6181014E-2],"split_indices":[2,0,2,0,0,1,2,0,0,0,0,0,0],"split_type":[0,0,0,0,0,0,0,0,0,0,0,0,0],"sum_hessian":[1.33E2,4.1E1,9.2E1,2.8E1,1.3E1,1.8E1,7.4E1,3E0,2.5E1,3E0,1.5E1,6E0,6.8E1],"tree_param":{"num_deleted":"0","num_feature":"3","num_nodes":"13","size_leaf_vector":"1"}},{"base_weights":[-3.123161E-2,9.588334E-1,-7.392888E0,-1.2635775E0,1.1390254E1,-1.3194695E-1,-8.286958E0,-1.9457306E-1,3.305793E-2,9.7424954E-1,1.8477263E-1,-4.7087136E-1,-1.694523E-1],"categories":[],"categories_nodes":[],"categories_segments":[],"categories_sizes":[],"default_left":[0,0,0,0,0,0,0,0,0,0,0,0,0],"id":62,"left_children":[1,3,5,7,9,-1,11,-1,-1,-1,-1,-1,-1],"loss_changes":[9.8375E2,2.773158E3,4.6137085E1,5.033131E2,1.2360295E3,0E0,4.0064026E1,0E0,0E0,0E0,0E0,0E0,0E0],"parents":[2147483647,0,0,1,1,2,2,3,3,4,4,6,6],"right_children":[2,4,6,8,10,-1,12,-1,-1,-1,-1,-1,-1],"split_conditions":[2.1E1,1.7E1,1.19E2,7E0,1.84E2,-1.3194695E-1,1.89E2,-1.9457306E-1,3.305793E-2,9.7424954E-1,1.8477263E-1,-4.7087136E-1,-1.694523E-1],"split_indices":[2,2,0,2,0,0,0,0,0,0,0,0,0],"split_type":[0,0,0,0,0,0,0,0,0,0,0,0,0],"sum_hessian":[1.33E2,1.18E2,1.5E1,9.8E1,2E1,3E0,1.2E1,4.1E1,5.7E1,9E0,1.1E1,9E0,3E0],"tree_param":{"num_deleted":"0","num_feature":"3","num_nodes":"13","size_leaf_vector":"1"}},{"base_weights":[-2.798553E-2,9.1927844E-1,-7.071512E0,-1.2020259E0,1.0875938E1,-4.7215652E0,-4.7091818E-1,3.285338E-2,-1.9803078E-1,9.3040866E-1,1.7630406E-1,-9.4764836E-2,-3.5843873E-1],"categories":[],"categories_nodes":[],"categories_segments":[],"categories_sizes":[],"default_left":[0,0,0,0,0,0,0,0,0,0,0,0,0],"id":63,"left_children":[1,3,5,7,9,11,-1,-1,-1,-1,-1,-1,-1],"loss_changes":[9.005593E2,2.5264846E3,4.377014E1,5.103216E2,1.1278335E3,5.557773E1,0E0,0E0,0E0,0E0,0E0,0E0,0E0],"parents":[2147483647,0,0,1,1,2,2,3,3,4,4,5,5],"right_children":[2,4,6,8,10,12,-1,-1,-1,-1,-1,-1,-1],"split_conditions":[2.1E1,1.7E1,5E0,1E1,1.84E2,1.4E2,-4.7091818E-1,3.285338E-2,-1.9803078E-1,9.3040866E-1,1.7630406E-1,-9.4764836E-2,-3.5843873E-1],"split_indices":[2,2,1,2,0,0,0,0,0,0,0,0,0],"split_type":[0,0,0,0,0,0,0,0,0,0,0,0,0],"sum_hessian":[1.33E2,1.18E2,1.5E1,9.8E1,2E1,9E0,6E0,5.9E1,3.9E1,9E0,1.1E1,5E0,4E0],"tree_param":{"num_deleted":"0","num_feature":"3","num_nodes":"13","size_leaf_vector":"1"}},{"base_weights":[-2.6455438E-2,-3.7335904E0,1.648019E0,-2.715772E0,-2.787622E-1,1.0226135E1,-5.470774E-1,-1.5804319E-1,-2.413877E-2,3.948573E-1,7.583939E-1,-5.9075904E-1,3.0199608E-2],"categories":[],"categories_nodes":[],"categories_segments":[],"categories_sizes":[],"default_left":[0,0,0,0,0,0,0,0,0,0,0,0,0],"id":64,"left_children":[1,3,5,7,-1,9,11,-1,-1,-1,-1,-1,-1],"loss_changes":[8.379584E2,6.3586548E1,1.7567651E3,2.7296799E1,0E0,9.889319E1,9.799141E2,0E0,0E0,0E0,0E0,0E0,0E0],"parents":[2147483647,0,0,1,1,2,2,3,3,5,5,6,6],"right_children":[2,4,6,8,-1,10,12,-1,-1,-1,-1,-1,-1],"split_conditions":[7E0,5.9E1,1E1,6E0,-2.787622E-1,1.97E2,1.1E1,-1.5804319E-1,-2.413877E-2,3.948573E-1,7.583939E-1,-5.9075904E-1,3.0199608E-2],"split_indices":[2,0,2,2,0,0,2,0,0,0,0,0,0],"split_type":[0,0,0,0,0,0,0,0,0,0,0,0,0],"sum_hessian":[1.33E2,4.1E1,9.2E1,2.8E1,1.3E1,1.8E1,7.4E1,2.3E1,5E0,1.4E1,4E0,6E0,6.8E1],"tree_param":{"num_deleted":"0","num_feature":"3","num_nodes":"13","size_leaf_vector":"1"}},{"base_weights":[-2.4147546E-2,8.876323E-1,-6.804001E0,-1.1297936E0,1.0356087E1,-1.1517391E-1,-7.6653924E0,3.0253237E-2,-1.8519183E-1,8.871816E-1,1.668396E-1,-4.3793502E-1,-1.507887E-1],"categories":[],"categories_nodes":[],"categories_segments":[],"categories_sizes":[],"default_left":[0,0,0,0,0,0,0,0,0,0,0,0,0],"id":65,"left_children":[1,3,5,7,9,-1,11,-1,-1,-1,-1,-1,-1],"loss_changes":[8.343917E2,2.284827E3,4.437036E1,4.4433545E2,1.0297556E3,0E0,3.9670776E1,0E0,0E0,0E0,0E0,0E0,0E0],"parents":[2147483647,0,0,1,1,2,2,3,3,4,4,6,6],"right_children":[2,4,6,8,10,-1,12,-1,-1,-1,-1,-1,-1],"split_conditions":[2.1E1,1.7E1,1.19E2,1E1,1.84E2,-1.1517391E-1,1.89E2,3.0253237E-2,-1.8519183E-1,8.871816E-1,1.668396E-1,-4.3793502E-1,-1.507887E-1],"split_indices":[2,2,0,2,0,0,0,0,0,0,0,0,0],"split_type":[0,0,0,0,0,0,0,0,0,0,0,0,0],"sum_hessian":[1.33E2,1.18E2,1.5E1,9.8E1,2E1,3E0,1.2E1,5.9E1,3.9E1,9E0,1.1E1,9E0,3E0],"tree_param":{"num_deleted":"0","num_feature":"3","num_nodes":"13","size_leaf_vector":"1"}},{"base_weights":[-2.148298E-2,-3.58742E0,1.5891712E0,-2.6154773E0,-2.6722428E-1,9.746864E0,-4.986334E-1,-1.9623688E-1,-8.5991405E-2,7.720564E-1,3.85706E-1,-5.575039E-1,2.9458717E-2],"categories":[],"categories_nodes":[],"categories_segments":[],"categories_sizes":[],"default_left":[0,0,0,0,0,0,0,0,0,0,0,0,0],"id":66,"left_children":[1,3,5,7,-1,9,11,-1,-1,-1,-1,-1,-1],"loss_changes":[7.753289E2,5.7747803E1,1.5888055E3,2.7256622E1,0E0,1.00809814E2,8.7557355E2,0E0,0E0,0E0,0E0,0E0,0E0],"parents":[2147483647,0,0,1,1,2,2,3,3,5,5,6,6],"right_children":[2,4,6,8,-1,10,12,-1,-1,-1,-1,-1,-1],"split_conditions":[7E0,5.9E1,1E1,3E0,-2.6722428E-1,2E0,1.1E1,-1.9623688E-1,-8.5991405E-2,7.720564E-1,3.85706E-1,-5.575039E-1,2.9458717E-2],"split_indices":[2,0,2,1,0,1,2,0,0,0,0,0,0],"split_type":[0,0,0,0,0,0,0,0,0,0,0,0,0],"sum_hessian":[1.33E2,4.1E1,9.2E1,2.8E1,1.3E1,1.8E1,7.4E1,1E1,1.8E1,3E0,1.5E1,6E0,6.8E1],"tree_param":{"num_deleted":"0","num_feature":"3","num_nodes":"13","size_leaf_vector":"1"}},{"base_weights":[-1.9812768E-2,8.564009E-1,-6.5354137E0,-1.0621917E0,9.8604145E0,-4.308772E0,-4.39135E-1,-1.871562E-1,2.3121465E-2,8.4593266E-1,1.5784232E-1,-7.774404E-2,-3.3758438E-1],"categories":[],"categories_nodes":[],"categories_segments":[],"categories_sizes":[],"default_left":[0,0,0,0,0,0,0,0,0,0,0,0,0],"id":67,"left_children":[1,3,5,7,9,11,-1,-1,-1,-1,-1,-1,-1],"loss_changes":[7.706108E2,2.0662026E3,4.2219727E1,4.063841E2,9.402135E2,5.6777176E1,0E0,0E0,0E0,0E0,0E0,0E0,0E0],"parents":[2147483647,0,0,1,1,2,2,3,3,4,4,5,5],"right_children":[2,4,6,8,10,12,-1,-1,-1,-1,-1,-1,-1],"split_conditions":[2.1E1,1.7E1,5E0,6E0,1.84E2,1.4E2,-4.39135E-1,-1.871562E-1,2.3121465E-2,8.4593266E-1,1.5784232E-1,-7.774404E-2,-3.3758438E-1],"split_indices":[2,2,1,2,0,0,0,0,0,0,0,0,0],"split_type":[0,0,0,0,0,0,0,0,0,0,0,0,0],"sum_hessian":[1.33E2,1.18E2,1.5E1,9.8E1,2E1,9E0,6E0,3.5E1,6.3E1,9E0,1.1E1,5E0,4E0],"tree_param":{"num_deleted":"0","num_feature":"3","num_nodes":"13","size_leaf_vector":"1"}},{"base_weights":[-1.8929638E-2,8.2064027E-1,-6.262048E0,-1.0107365E0,9.415195E0,-1.0000973E-1,-7.091691E0,3.283065E-2,-1.7432462E-1,8.0786574E-1,1.5060812E-1,-4.0752807E-1,-1.3357964E-1],"categories":[],"categories_nodes":[],"categories_segments":[],"categories_sizes":[],"default_left":[0,0,0,0,0,0,0,0,0,0,0,0,0],"id":68,"left_children":[1,3,5,7,9,-1,11,-1,-1,-1,-1,-1,-1],"loss_changes":[7.0750446E2,1.8825605E3,4.2388367E1,4.1095627E2,8.5790186E2,0E0,3.906903E1,0E0,0E0,0E0,0E0,0E0,0E0],"parents":[2147483647,0,0,1,1,2,2,3,3,4,4,6,6],"right_children":[2,4,6,8,10,-1,12,-1,-1,-1,-1,-1,-1],"split_conditions":[2.1E1,1.7E1,1.19E2,1E1,1.84E2,-1.0000973E-1,1.89E2,3.283065E-2,-1.7432462E-1,8.0786574E-1,1.5060812E-1,-4.0752807E-1,-1.3357964E-1],"split_indices":[2,2,0,2,0,0,0,0,0,0,0,0,0],"split_type":[0,0,0,0,0,0,0,0,0,0,0,0,0],"sum_hessian":[1.33E2,1.18E2,1.5E1,9.8E1,2E1,3E0,1.2E1,5.9E1,3.9E1,9E0,1.1E1,9E0,3E0],"tree_param":{"num_deleted":"0","num_feature":"3","num_nodes":"13","size_leaf_vector":"1"}},{"base_weights":[-1.6669003E-2,-3.3005183E0,1.4665389E0,-2.3816845E0,-4.9680657E0,9.267444E0,-5.292442E-1,-1.8221377E-1,-7.626796E-2,-1.6117418E-1,-2.9367834E-1,3.5311997E-1,7.0145446E-1,-5.271299E-1,2.4713678E-2],"categories":[],"categories_nodes":[],"categories_segments":[],"categories_sizes":[],"default_left":[0,0,0,0,0,0,0,0,0,0,0,0,0,0,0],"id":69,"left_children":[1,3,5,7,9,11,13,-1,-1,-1,-1,-1,-1,-1,-1],"loss_changes":[6.5750494E2,5.251999E1,1.4528137E3,2.5795639E1,3.1827393E0,1.00414185E2,7.7387427E2,0E0,0E0,0E0,0E0,0E0,0E0,0E0,0E0],"parents":[2147483647,0,0,1,1,2,2,3,3,4,4,5,5,6,6],"right_children":[2,4,6,8,10,12,14,-1,-1,-1,-1,-1,-1,-1,-1],"split_conditions":[7E0,5.9E1,1E1,3E0,2E0,1.97E2,1.1E1,-1.8221377E-1,-7.626796E-2,-1.6117418E-1,-2.9367834E-1,3.5311997E-1,7.0145446E-1,-5.271299E-1,2.4713678E-2],"split_indices":[2,0,2,1,2,0,2,0,0,0,0,0,0,0,0],"split_type":[0,0,0,0,0,0,0,0,0,0,0,0,0,0,0],"sum_hessian":[1.33E2,4.1E1,9.2E1,2.8E1,1.3E1,1.8E1,7.4E1,1E1,1.8E1,6E0,7E0,1.4E1,4E0,6E0,6.8E1],"tree_param":{"num_deleted":"0","num_feature":"3","num_nodes":"15","size_leaf_vector":"1"}},{"base_weights":[-1.7041108E-2,7.891724E-1,-6.012189E0,-9.5339197E-1,8.966539E0,-3.9032745E0,-4.0830198E-1,2.993992E-2,-1.6289213E-1,7.7039963E-1,1.4257246E-1,-6.1116915E-2,-3.1698716E-1],"categories":[],"categories_nodes":[],"categories_segments":[],"categories_sizes":[],"default_left":[0,0,0,0,0,0,0,0,0,0,0,0,0],"id":70,"left_children":[1,3,5,7,9,11,-1,-1,-1,-1,-1,-1,-1],"loss_changes":[6.524161E2,1.7042495E3,4.0802246E1,3.5606848E2,7.832561E2,5.7570847E1,0E0,0E0,0E0,0E0,0E0,0E0,0E0],"parents":[2147483647,0,0,1,1,2,2,3,3,4,4,5,5],"right_children":[2,4,6,8,10,12,-1,-1,-1,-1,-1,-1,-1],"split_conditions":[2.1E1,1.7E1,5E0,1E1,1.84E2,1.4E2,-4.0830198E-1,2.993992E-2,-1.6289213E-1,7.7039963E-1,1.4257246E-1,-6.1116915E-2,-3.1698716E-1],"split_indices":[2,2,1,2,0,0,0,0,0,0,0,0,0],"split_type":[0,0,0,0,0,0,0,0,0,0,0,0,0],"sum_hessian":[1.33E2,1.18E2,1.5E1,9.8E1,2E1,9E0,6E0,5.9E1,3.9E1,9E0,1.1E1,5E0,4E0],"tree_param":{"num_deleted":"0","num_feature":"3","num_nodes":"13","size_leaf_vector":"1"}},{"base_weights":[-1.6238626E-2,-3.1817048E0,1.4135014E0,-2.3004224E0,-4.7799535E0,8.831213E0,-4.844989E-1,1.48959635E-2,-1.3058448E-1,-1.555499E-1,-2.8213978E-1,7.179331E-1,3.4487E-1,-4.9755773E-1,2.4145408E-2],"categories":[],"categories_nodes":[],"categories_segments":[],"categories_sizes":[],"default_left":[0,0,0,0,0,0,0,0,0,0,0,0,0,0,0],"id":71,"left_children":[1,3,5,7,9,11,13,-1,-1,-1,-1,-1,-1,-1,-1],"loss_changes":[6.109537E2,4.8161407E1,1.3136088E3,2.423265E1,2.6059265E0,1.04054565E2,6.9166364E2,0E0,0E0,0E0,0E0,0E0,0E0,0E0,0E0],"parents":[2147483647,0,0,1,1,2,2,3,3,4,4,5,5,6,6],"right_children":[2,4,6,8,10,12,14,-1,-1,-1,-1,-1,-1,-1,-1],"split_conditions":[7E0,5.9E1,1E1,4.5E1,2E0,2E0,1.1E1,1.48959635E-2,-1.3058448E-1,-1.555499E-1,-2.8213978E-1,7.179331E-1,3.4487E-1,-4.9755773E-1,2.4145408E-2],"split_indices":[2,0,2,0,2,1,2,0,0,0,0,0,0,0,0],"split_type":[0,0,0,0,0,0,0,0,0,0,0,0,0,0,0],"sum_hessian":[1.33E2,4.1E1,9.2E1,2.8E1,1.3E1,1.8E1,7.4E1,3E0,2.5E1,6E0,7E0,3E0,1.5E1,6E0,6.8E1],"tree_param":{"num_deleted":"0","num_feature":"3","num_nodes":"15","size_leaf_vector":"1"}},{"base_weights":[-1.5154682E-2,7.605304E-1,-5.7833652E0,-8.970651E-1,8.538693E0,-8.7120436E-2,-6.5818624E0,-1.66291E-1,2.4156308E-2,7.346453E-1,1.3493125E-1,-3.8041472E-1,-1.1851578E-1],"categories":[],"categories_nodes":[],"categories_segments":[],"categories_sizes":[],"default_left":[0,0,0,0,0,0,0,0,0,0,0,0,0],"id":72,"left_children":[1,3,5,7,9,-1,11,-1,-1,-1,-1,-1,-1],"loss_changes":[6.0395667E2,1.5419325E3,4.0158752E1,3.3346927E2,7.1511084E2,0E0,3.8163208E1,0E0,0E0,0E0,0E0,0E0,0E0],"parents":[2147483647,0,0,1,1,2,2,3,3,4,4,6,6],"right_children":[2,4,6,8,10,-1,12,-1,-1,-1,-1,-1,-1],"split_conditions":[2.1E1,1.7E1,1.19E2,6E0,1.84E2,-8.7120436E-2,1.89E2,-1.66291E-1,2.4156308E-2,7.346453E-1,1.3493125E-1,-3.8041472E-1,-1.1851578E-1],"split_indices":[2,2,0,2,0,0,0,0,0,0,0,0,0],"split_type":[0,0,0,0,0,0,0,0,0,0,0,0,0],"sum_hessian":[1.33E2,1.18E2,1.5E1,9.8E1,2E1,3E0,1.2E1,3.5E1,6.3E1,9E0,1.1E1,9E0,3E0],"tree_param":{"num_deleted":"0","num_feature":"3","num_nodes":"13","size_leaf_vector":"1"}},{"base_weights":[-1.3341391E-2,7.2861695E-1,-5.5308228E0,-8.5364676E-1,8.153164E0,-3.533174E0,-3.7972447E-1,3.183612E-2,-1.5339296E-1,7.0158607E-1,1.287468E-1,-3.2703954E-1,-6.548985E-2],"categories":[],"categories_nodes":[],"categories_segments":[],"categories_sizes":[],"default_left":[0,0,0,0,0,0,0,0,0,0,0,0,0],"id":73,"left_children":[1,3,5,7,9,11,-1,-1,-1,-1,-1,-1,-1],"loss_changes":[5.525912E2,1.4049233E3,3.9127014E1,3.2865277E2,6.5249976E2,5.8303543E1,0E0,0E0,0E0,0E0,0E0,0E0,0E0],"parents":[2147483647,0,0,1,1,2,2,3,3,4,4,5,5],"right_children":[2,4,6,8,10,12,-1,-1,-1,-1,-1,-1,-1],"split_conditions":[2.1E1,1.7E1,5E0,1E1,1.84E2,3E0,-3.7972447E-1,3.183612E-2,-1.5339296E-1,7.0158607E-1,1.287468E-1,-3.2703954E-1,-6.548985E-2],"split_indices":[2,2,1,2,0,1,0,0,0,0,0,0,0],"split_type":[0,0,0,0,0,0,0,0,0,0,0,0,0],"sum_hessian":[1.33E2,1.18E2,1.5E1,9.8E1,2E1,9E0,6E0,5.9E1,3.9E1,9E0,1.1E1,3E0,6E0],"tree_param":{"num_deleted":"0","num_feature":"3","num_nodes":"13","size_leaf_vector":"1"}},{"base_weights":[-1.314633E-2,-2.9317493E0,1.3050739E0,-2.092408E0,-4.4609747E0,8.392557E0,-5.07823E-1,-1.656376E-1,-6.37883E-2,-1.4312129E-1,-2.6510414E-1,6.8891144E-1,3.2608023E-1,-4.7069484E-1,2.0152576E-2],"categories":[],"categories_nodes":[],"categories_segments":[],"categories_sizes":[],"default_left":[0,0,0,0,0,0,0,0,0,0,0,0,0,0,0],"id":74,"left_children":[1,3,5,7,9,11,13,-1,-1,-1,-1,-1,-1,-1,-1],"loss_changes":[5.1937256E2,4.4574585E1,1.1992073E3,2.4674652E1,3.6469421E0,1.0159436E2,6.1221796E2,0E0,0E0,0E0,0E0,0E0,0E0,0E0,0E0],"parents":[2147483647,0,0,1,1,2,2,3,3,4,4,5,5,6,6],"right_children":[2,4,6,8,10,12,14,-1,-1,-1,-1,-1,-1,-1,-1],"split_conditions":[7E0,5.9E1,1E1,3E0,2E0,2E0,1.1E1,-1.656376E-1,-6.37883E-2,-1.4312129E-1,-2.6510414E-1,6.8891144E-1,3.2608023E-1,-4.7069484E-1,2.0152576E-2],"split_indices":[2,0,2,1,2,1,2,0,0,0,0,0,0,0,0],"split_type":[0,0,0,0,0,0,0,0,0,0,0,0,0,0,0],"sum_hessian":[1.33E2,4.1E1,9.2E1,2.8E1,1.3E1,1.8E1,7.4E1,1E1,1.8E1,6E0,7E0,3E0,1.5E1,6E0,6.8E1],"tree_param":{"num_deleted":"0","num_feature":"3","num_nodes":"15","size_leaf_vector":"1"}},{"base_weights":[-1.3037183E-2,7.0080745E-1,-5.3214417E0,-8.0491596E-1,7.765846E0,-7.4297145E-2,-6.0922537E0,-1.4001724E-1,3.2696377E-2,8.1841135E-1,2.0272937E-1,-3.5235566E-1,-1.0910206E-1],"categories":[],"categories_nodes":[],"categories_segments":[],"categories_sizes":[],"default_left":[0,0,0,0,0,0,0,0,0,0,0,0,0],"id":75,"left_children":[1,3,5,7,9,-1,11,-1,-1,-1,-1,-1,-1],"loss_changes":[5.1150568E2,1.2721721E3,3.8250397E1,2.9002203E2,6.040725E2,0E0,3.316104E1,0E0,0E0,0E0,0E0,0E0,0E0],"parents":[2147483647,0,0,1,1,2,2,3,3,4,4,6,6],"right_children":[2,4,6,8,10,-1,12,-1,-1,-1,-1,-1,-1],"split_conditions":[2.1E1,1.7E1,1.19E2,7E0,1.49E2,-7.4297145E-2,1.89E2,-1.4001724E-1,3.2696377E-2,8.1841135E-1,2.0272937E-1,-3.5235566E-1,-1.0910206E-1],"split_indices":[2,2,0,2,0,0,0,0,0,0,0,0,0],"split_type":[0,0,0,0,0,0,0,0,0,0,0,0,0],"sum_hessian":[1.33E2,1.18E2,1.5E1,9.8E1,2E1,3E0,1.2E1,4.1E1,5.7E1,5E0,1.5E1,9E0,3E0],"tree_param":{"num_deleted":"0","num_feature":"3","num_nodes":"13","size_leaf_vector":"1"}},{"base_weights":[-9.564812E-3,6.734453E-1,-5.088855E0,-7.657558E-1,7.426182E0,-3.1975708E0,-3.531855E-1,3.3365283E-2,-1.448102E-1,6.4459306E-1,1.12630025E-1,-2.7557373E-2,-2.8668824E-1],"categories":[],"categories_nodes":[],"categories_segments":[],"categories_sizes":[],"default_left":[0,0,0,0,0,0,0,0,0,0,0,0,0],"id":76,"left_children":[1,3,5,7,9,11,-1,-1,-1,-1,-1,-1,-1],"loss_changes":[4.6830072E2,1.1621935E3,3.7173492E1,3.0418588E2,5.6477966E2,6.3958275E1,0E0,0E0,0E0,0E0,0E0,0E0,0E0],"parents":[2147483647,0,0,1,1,2,2,3,3,4,4,5,5],"right_children":[2,4,6,8,10,12,-1,-1,-1,-1,-1,-1,-1],"split_conditions":[2.1E1,1.7E1,5E0,1E1,1.84E2,1.4E2,-3.531855E-1,3.3365283E-2,-1.448102E-1,6.4459306E-1,1.12630025E-1,-2.7557373E-2,-2.8668824E-1],"split_indices":[2,2,1,2,0,0,0,0,0,0,0,0,0],"split_type":[0,0,0,0,0,0,0,0,0,0,0,0,0],"sum_hessian":[1.33E2,1.18E2,1.5E1,9.8E1,2E1,9E0,6E0,5.9E1,3.9E1,9E0,1.1E1,5E0,4E0],"tree_param":{"num_deleted":"0","num_feature":"3","num_nodes":"13","size_leaf_vector":"1"}},{"base_weights":[-9.250213E-3,-2.6962335E0,1.2043256E0,-1.8927267E0,-4.1680527E0,7.963758E0,-5.241216E-1,-1.12743035E-1,1.482441E-2,-1.3241681E-1,-2.488399E-1,2.957844E-1,6.257608E-1,-4.4571796E-1,1.6732892E-2],"categories":[],"categories_nodes":[],"categories_segments":[],"categories_sizes":[],"default_left":[0,0,0,0,0,0,0,0,0,0,0,0,0,0,0],"id":77,"left_children":[1,3,5,7,9,11,13,-1,-1,-1,-1,-1,-1,-1,-1],"loss_changes":[4.402021E2,4.1780945E1,1.090723E3,2.3659424E1,4.026657E0,1.03076294E2,5.433855E2,0E0,0E0,0E0,0E0,0E0,0E0,0E0,0E0],"parents":[2147483647,0,0,1,1,2,2,3,3,4,4,5,5,6,6],"right_children":[2,4,6,8,10,12,14,-1,-1,-1,-1,-1,-1,-1,-1],"split_conditions":[7E0,5.9E1,1E1,6E0,2E0,1.97E2,1.1E1,-1.12743035E-1,1.482441E-2,-1.3241681E-1,-2.488399E-1,2.957844E-1,6.257608E-1,-4.4571796E-1,1.6732892E-2],"split_indices":[2,0,2,1,2,0,2,0,0,0,0,0,0,0,0],"split_type":[0,0,0,0,0,0,0,0,0,0,0,0,0,0,0],"sum_hessian":[1.33E2,4.1E1,9.2E1,2.8E1,1.3E1,1.8E1,7.4E1,2.4E1,4E0,6E0,7E0,1.4E1,4E0,6E0,6.8E1],"tree_param":{"num_deleted":"0","num_feature":"3","num_nodes":"15","size_leaf_vector":"1"}},{"base_weights":[-8.690564E-3,6.4793795E-1,-4.891822E0,-7.219214E-1,7.0749917E0,-6.296482E-2,-5.633228E0,3.0506998E-2,-1.3509826E-1,7.567557E-1,1.8051295E-1,-3.2820466E-1,-9.488793E-2],"categories":[],"categories_nodes":[],"categories_segments":[],"categories_sizes":[],"default_left":[0,0,0,0,0,0,0,0,0,0,0,0,0],"id":78,"left_children":[1,3,5,7,9,-1,11,-1,-1,-1,-1,-1,-1],"loss_changes":[4.328276E2,1.0528026E3,3.599695E1,2.62765E2,5.3180786E2,0E0,3.2746796E1,0E0,0E0,0E0,0E0,0E0,0E0],"parents":[2147483647,0,0,1,1,2,2,3,3,4,4,6,6],"right_children":[2,4,6,8,10,-1,12,-1,-1,-1,-1,-1,-1],"split_conditions":[2.1E1,1.7E1,1.19E2,1E1,1.49E2,-6.296482E-2,1.89E2,3.0506998E-2,-1.3509826E-1,7.567557E-1,1.8051295E-1,-3.2820466E-1,-9.488793E-2],"split_indices":[2,2,0,2,0,0,0,0,0,0,0,0,0],"split_type":[0,0,0,0,0,0,0,0,0,0,0,0,0],"sum_hessian":[1.33E2,1.18E2,1.5E1,9.8E1,2E1,3E0,1.2E1,5.9E1,3.9E1,5E0,1.5E1,9E0,3E0],"tree_param":{"num_deleted":"0","num_feature":"3","num_nodes":"13","size_leaf_vector":"1"}},{"base_weights":[-5.6676436E-3,-2.6026096E0,1.1672058E0,-1.8309194E0,-4.01521E0,7.58517E0,-4.7424114E-1,-1.495228E-1,-5.3162225E-2,-1.420283E-1,-2.5539875E-1,6.401146E-1,2.903408E-1,-1.806315E-1,7.91422E-2],"categories":[],"categories_nodes":[],"categories_segments":[],"categories_sizes":[],"default_left":[0,0,0,0,0,0,0,0,0,0,0,0,0,0,0],"id":79,"left_children":[1,3,5,7,9,11,13,-1,-1,-1,-1,-1,-1,-1,-1],"loss_changes":[4.1118628E2,3.843225E1,9.8332855E2,2.2634674E1,3.4609985E0,1.0193945E2,4.899132E2,0E0,0E0,0E0,0E0,0E0,0E0,0E0,0E0],"parents":[2147483647,0,0,1,1,2,2,3,3,4,4,5,5,6,6],"right_children":[2,4,6,8,10,12,14,-1,-1,-1,-1,-1,-1,-1,-1],"split_conditions":[7E0,5.9E1,1E1,3E0,5E0,2E0,1.5E1,-1.495228E-1,-5.3162225E-2,-1.420283E-1,-2.5539875E-1,6.401146E-1,2.903408E-1,-1.806315E-1,7.91422E-2],"split_indices":[2,0,2,1,1,1,2,0,0,0,0,0,0,0,0],"split_type":[0,0,0,0,0,0,0,0,0,0,0,0,0,0,0],"sum_hessian":[1.33E2,4.1E1,9.2E1,2.8E1,1.3E1,1.8E1,7.4E1,1E1,1.8E1,8E0,5E0,3E0,1.5E1,2.9E1,4.5E1],"tree_param":{"num_deleted":"0","num_feature":"3","num_nodes":"15","size_leaf_vector":"1"}},{"base_weights":[-3.6781367E-3,6.347573E-1,-4.7518115E0,-6.5620506E-1,6.690496E0,-2.956552E0,-3.3188188E-1,-1.3764654E-1,2.6672816E-2,5.312258E-1,1.3231744E-2,-1.8939717E-2,-2.7292755E-1],"categories":[],"categories_nodes":[],"categories_segments":[],"categories_sizes":[],"default_left":[0,0,0,0,0,0,0,0,0,0,0,0,0],"id":80,"left_children":[1,3,5,7,9,11,-1,-1,-1,-1,-1,-1,-1],"loss_changes":[4.0922067E2,9.347002E2,3.454425E1,2.484135E2,5.2805707E2,6.242781E1,0E0,0E0,0E0,0E0,0E0,0E0,0E0],"parents":[2147483647,0,0,1,1,2,2,3,3,4,4,5,5],"right_children":[2,4,6,8,10,12,-1,-1,-1,-1,-1,-1,-1],"split_conditions":[2.1E1,1.7E1,5E0,6E0,5E0,1.4E2,-3.3188188E-1,-1.3764654E-1,2.6672816E-2,5.312258E-1,1.3231744E-2,-1.8939717E-2,-2.7292755E-1],"split_indices":[2,2,1,2,1,0,0,0,0,0,0,0,0],"split_type":[0,0,0,0,0,0,0,0,0,0,0,0,0],"sum_hessian":[1.33E2,1.18E2,1.5E1,9.8E1,2E1,9E0,6E0,3.5E1,6.3E1,1.2E1,8E0,5E0,4E0],"tree_param":{"num_deleted":"0","num_feature":"3","num_nodes":"13","size_leaf_vector":"1"}},{"base_weights":[-4.913501E-3,6.066629E-1,-4.553206E0,-6.245157E-1,6.381902E0,-5.5038262E-2,-5.265249E0,-5.3431828E-2,2.280469E-1,7.084253E-1,1.5315285E-1,-3.0861622E-1,-8.406239E-2],"categories":[],"categories_nodes":[],"categories_segments":[],"categories_sizes":[],"default_left":[0,0,0,0,0,0,0,0,0,0,0,0,0],"id":81,"left_children":[1,3,5,7,9,-1,11,-1,-1,-1,-1,-1,-1],"loss_changes":[3.7550046E2,8.5011743E2,3.3536774E1,2.328678E2,4.9929413E2,0E0,3.1885284E1,0E0,0E0,0E0,0E0,0E0,0E0],"parents":[2147483647,0,0,1,1,2,2,3,3,4,4,6,6],"right_children":[2,4,6,8,10,-1,12,-1,-1,-1,-1,-1,-1],"split_conditions":[2.1E1,1.7E1,1.19E2,2.05E2,1.49E2,-5.5038262E-2,1.89E2,-5.3431828E-2,2.280469E-1,7.084253E-1,1.5315285E-1,-3.0861622E-1,-8.406239E-2],"split_indices":[2,2,0,0,0,0,0,0,0,0,0,0,0],"split_type":[0,0,0,0,0,0,0,0,0,0,0,0,0],"sum_hessian":[1.33E2,1.18E2,1.5E1,9.8E1,2E1,3E0,1.2E1,9.1E1,7E0,5E0,1.5E1,9E0,3E0],"tree_param":{"num_deleted":"0","num_feature":"3","num_nodes":"13","size_leaf_vector":"1"}},{"base_weights":[-2.7468667E-4,5.850394E-1,-4.353531E0,-5.9152395E-1,6.103836E0,-2.652884E0,-3.080547E-1,3.300218E-2,-1.2270435E-1,4.9323246E-1,-3.3264162E-4,-7.4050906E-3,-2.5640228E-1],"categories":[],"categories_nodes":[],"categories_segments":[],"categories_sizes":[],"default_left":[0,0,0,0,0,0,0,0,0,0,0,0,0],"id":82,"left_children":[1,3,5,7,9,11,-1,-1,-1,-1,-1,-1,-1],"loss_changes":[3.4398196E2,7.76303E2,3.2839752E1,2.32401E2,4.826541E2,6.1237946E1,0E0,0E0,0E0,0E0,0E0,0E0,0E0],"parents":[2147483647,0,0,1,1,2,2,3,3,4,4,5,5],"right_children":[2,4,6,8,10,12,-1,-1,-1,-1,-1,-1,-1],"split_conditions":[2.1E1,1.7E1,5E0,1E1,5E0,1.4E2,-3.080547E-1,3.300218E-2,-1.2270435E-1,4.9323246E-1,-3.3264162E-4,-7.4050906E-3,-2.5640228E-1],"split_indices":[2,2,1,2,1,0,0,0,0,0,0,0,0],"split_type":[0,0,0,0,0,0,0,0,0,0,0,0,0],"sum_hessian":[1.33E2,1.18E2,1.5E1,9.8E1,2E1,9E0,6E0,5.9E1,3.9E1,1.2E1,8E0,5E0,4E0],"tree_param":{"num_deleted":"0","num_feature":"3","num_nodes":"13","size_leaf_vector":"1"}},{"base_weights":[-1.5174524E-3,-2.3559282E0,1.0617812E0,-1.6220669E0,-3.7077887E0,7.1897078E0,-5.0478405E-1,-9.8372035E-2,2.1460762E-2,-1.3313518E-1,-2.5282007E-1,6.0883904E-1,2.7467915E-1,-4.1270956E-1,1.4435174E-2],"categories":[],"categories_nodes":[],"categories_segments":[],"categories_sizes":[],"default_left":[0,0,0,0,0,0,0,0,0,0,0,0,0,0,0],"id":83,"left_children":[1,3,5,7,9,11,13,-1,-1,-1,-1,-1,-1,-1,-1],"loss_changes":[3.3796265E2,3.5652985E1,8.9641034E2,2.138977E1,6.268112E0,9.3821106E1,4.6356238E2,0E0,0E0,0E0,0E0,0E0,0E0,0E0,0E0],"parents":[2147483647,0,0,1,1,2,2,3,3,4,4,5,5,6,6],"right_children":[2,4,6,8,10,12,14,-1,-1,-1,-1,-1,-1,-1,-1],"split_conditions":[7E0,5.9E1,1E1,6E0,3E0,2E0,1.1E1,-9.8372035E-2,2.1460762E-2,-1.3313518E-1,-2.5282007E-1,6.0883904E-1,2.7467915E-1,-4.1270956E-1,1.4435174E-2],"split_indices":[2,0,2,1,2,1,2,0,0,0,0,0,0,0,0],"split_type":[0,0,0,0,0,0,0,0,0,0,0,0,0,0,0],"sum_hessian":[1.33E2,4.1E1,9.2E1,2.8E1,1.3E1,1.8E1,7.4E1,2.4E1,4E0,9E0,4E0,3E0,1.5E1,6E0,6.8E1],"tree_param":{"num_deleted":"0","num_feature":"3","num_nodes":"15","size_leaf_vector":"1"}},{"base_weights":[-1.2737103E-3,5.6127197E-1,-4.1851277E0,-5.57419E-1,5.8083735E0,-4.5721628E-2,-4.8695626E0,-1.2476786E-1,2.706905E-2,5.414502E-1,5.7024192E-2,-3.112991E-1,-1.124705E-1],"categories":[],"categories_nodes":[],"categories_segments":[],"categories_sizes":[],"default_left":[0,0,0,0,0,0,0,0,0,0,0,0,0],"id":84,"left_children":[1,3,5,7,9,-1,11,-1,-1,-1,-1,-1,-1],"loss_changes":[3.1773264E2,7.01754E2,3.136435E1,2.121622E2,4.7980035E2,0E0,3.219754E1,0E0,0E0,0E0,0E0,0E0,0E0],"parents":[2147483647,0,0,1,1,2,2,3,3,4,4,6,6],"right_children":[2,4,6,8,10,-1,12,-1,-1,-1,-1,-1,-1],"split_conditions":[2.1E1,1.7E1,1.19E2,6E0,1.84E2,-4.5721628E-2,1.46E2,-1.2476786E-1,2.706905E-2,5.414502E-1,5.7024192E-2,-3.112991E-1,-1.124705E-1],"split_indices":[2,2,0,2,0,0,0,0,0,0,0,0,0],"split_type":[0,0,0,0,0,0,0,0,0,0,0,0,0],"sum_hessian":[1.33E2,1.18E2,1.5E1,9.8E1,2E1,3E0,1.2E1,3.5E1,6.3E1,9E0,1.1E1,7E0,5E0],"tree_param":{"num_deleted":"0","num_feature":"3","num_nodes":"13","size_leaf_vector":"1"}},{"base_weights":[-9.7624934E-4,5.374172E-1,-4.005216E0,-5.305351E-1,5.546458E0,-2.365651E0,-2.8876394E-1,3.3258885E-2,-1.15542054E-1,4.5785442E-1,-1.4258491E-2,-2.706026E-1,-1.4345005E-2],"categories":[],"categories_nodes":[],"categories_segments":[],"categories_sizes":[],"default_left":[0,0,0,0,0,0,0,0,0,0,0,0,0],"id":85,"left_children":[1,3,5,7,9,11,-1,-1,-1,-1,-1,-1,-1],"loss_changes":[2.910372E2,6.3952313E2,3.277185E1,2.1228185E2,4.4478418E2,6.177437E1,0E0,0E0,0E0,0E0,0E0,0E0,0E0],"parents":[2147483647,0,0,1,1,2,2,3,3,4,4,5,5],"right_children":[2,4,6,8,10,12,-1,-1,-1,-1,-1,-1,-1],"split_conditions":[2.1E1,1.7E1,5E0,1E1,5E0,3E0,-2.8876394E-1,3.3258885E-2,-1.15542054E-1,4.5785442E-1,-1.4258491E-2,-2.706026E-1,-1.4345005E-2],"split_indices":[2,2,1,2,1,1,0,0,0,0,0,0,0],"split_type":[0,0,0,0,0,0,0,0,0,0,0,0,0],"sum_hessian":[1.33E2,1.18E2,1.5E1,9.8E1,2E1,9E0,6E0,5.9E1,3.9E1,1.2E1,8E0,3E0,6E0],"tree_param":{"num_deleted":"0","num_feature":"3","num_nodes":"13","size_leaf_vector":"1"}},{"base_weights":[-2.515195E-3,-2.1815143E0,9.81576E-1,-1.4814425E0,-3.475841E0,6.8195696E0,-5.104701E-1,-1.2978417E-1,-3.7919246E-2,-1.1671138E-1,-2.304477E-1,2.4880326E-1,5.493085E-1,-3.9123067E-1,1.1947129E-2],"categories":[],"categories_nodes":[],"categories_segments":[],"categories_sizes":[],"default_left":[0,0,0,0,0,0,0,0,0,0,0,0,0,0,0],"id":86,"left_children":[1,3,5,7,9,11,13,-1,-1,-1,-1,-1,-1,-1,-1],"loss_changes":[2.8948206E2,3.2907867E1,8.1356287E2,2.1395615E1,7.3517303E0,9.1273865E1,4.12968E2,0E0,0E0,0E0,0E0,0E0,0E0,0E0,0E0],"parents":[2147483647,0,0,1,1,2,2,3,3,4,4,5,5,6,6],"right_children":[2,4,6,8,10,12,14,-1,-1,-1,-1,-1,-1,-1,-1],"split_conditions":[7E0,5.9E1,1E1,3E0,5E0,1.97E2,1.1E1,-1.2978417E-1,-3.7919246E-2,-1.1671138E-1,-2.304477E-1,2.4880326E-1,5.493085E-1,-3.9123067E-1,1.1947129E-2],"split_indices":[2,0,2,1,1,0,2,0,0,0,0,0,0,0,0],"split_type":[0,0,0,0,0,0,0,0,0,0,0,0,0,0,0],"sum_hessian":[1.33E2,4.1E1,9.2E1,2.8E1,1.3E1,1.8E1,7.4E1,1E1,1.8E1,8E0,5E0,1.4E1,4E0,6E0,6.8E1],"tree_param":{"num_deleted":"0","num_feature":"3","num_nodes":"15","size_leaf_vector":"1"}},{"base_weights":[-3.1068148E-3,5.1441956E-1,-3.852015E0,-5.0141907E-1,5.278877E0,-2.7168996E0,-3.2890683E-1,1.2624966E-2,-1.5758054E-1,6.317145E-1,1.0953336E-1,1.8082684E-2,-2.343101E-1],"categories":[],"categories_nodes":[],"categories_segments":[],"categories_sizes":[],"default_left":[0,0,0,0,0,0,0,0,0,0,0,0,0],"id":87,"left_children":[1,3,5,7,9,11,-1,-1,-1,-1,-1,-1,-1],"loss_changes":[2.688977E2,5.785974E2,3.1639267E1,1.9860057E2,4.4933875E2,8.0508606E1,0E0,0E0,0E0,0E0,0E0,0E0,0E0],"parents":[2147483647,0,0,1,1,2,2,3,3,4,4,5,5],"right_children":[2,4,6,8,10,12,-1,-1,-1,-1,-1,-1,-1],"split_conditions":[2.1E1,1.7E1,6E0,1.3E1,1.49E2,1.28E2,-3.2890683E-1,1.2624966E-2,-1.5758054E-1,6.317145E-1,1.0953336E-1,1.8082684E-2,-2.343101E-1],"split_indices":[2,2,1,2,0,0,0,0,0,0,0,0,0],"split_type":[0,0,0,0,0,0,0,0,0,0,0,0,0],"sum_hessian":[1.33E2,1.18E2,1.5E1,9.8E1,2E1,1.2E1,3E0,7.7E1,2.1E1,5E0,1.5E1,5E0,7E0],"tree_param":{"num_deleted":"0","num_feature":"3","num_nodes":"13","size_leaf_vector":"1"}},{"base_weights":[-2.5683162E-3,-2.097023E0,9.433421E-1,3.9046194E-2,-2.3384273E0,6.508639E0,-4.7911102E-1,-2.3830151E-2,-1.3654037E-1,5.6642914E-1,2.4484316E-1,-3.7500426E-1,1.2005268E-2],"categories":[],"categories_nodes":[],"categories_segments":[],"categories_sizes":[],"default_left":[0,0,0,0,0,0,0,0,0,0,0,0,0],"id":88,"left_children":[1,3,5,-1,7,9,11,-1,-1,-1,-1,-1,-1],"loss_changes":[2.674545E2,3.100557E1,7.393412E2,0E0,2.7189651E1,9.213019E1,3.8052075E2,0E0,0E0,0E0,0E0,0E0,0E0],"parents":[2147483647,0,0,1,1,2,2,4,4,5,5,6,6],"right_children":[2,4,6,-1,8,10,12,-1,-1,-1,-1,-1,-1],"split_conditions":[7E0,4.5E1,1E1,3.9046194E-2,2E0,2E0,1.1E1,-2.3830151E-2,-1.3654037E-1,5.6642914E-1,2.4484316E-1,-3.7500426E-1,1.2005268E-2],"split_indices":[2,0,2,0,1,1,2,0,0,0,0,0,0],"split_type":[0,0,0,0,0,0,0,0,0,0,0,0,0],"sum_hessian":[1.33E2,4.1E1,9.2E1,3E0,3.8E1,1.8E1,7.4E1,7E0,3.1E1,3E0,1.5E1,6E0,6.8E1],"tree_param":{"num_deleted":"0","num_feature":"3","num_nodes":"13","size_leaf_vector":"1"}},{"base_weights":[-2.02122E-6,4.981144E-1,-3.704743E0,-4.7009236E-1,5.038798E0,-2.608771E0,-3.1702328E-1,-4.3234926E-2,2.0633201E-1,4.8686248E-1,3.5176087E-2,1.6828919E-2,-2.2458434E-1],"categories":[],"categories_nodes":[],"categories_segments":[],"categories_sizes":[],"default_left":[0,0,0,0,0,0,0,0,0,0,0,0,0],"id":89,"left_children":[1,3,5,7,9,11,-1,-1,-1,-1,-1,-1,-1],"loss_changes":[2.4912796E2,5.255308E2,2.9678024E1,1.831443E2,4.2090045E2,7.360779E1,0E0,0E0,0E0,0E0,0E0,0E0,0E0],"parents":[2147483647,0,0,1,1,2,2,3,3,4,4,5,5],"right_children":[2,4,6,8,10,12,-1,-1,-1,-1,-1,-1,-1],"split_conditions":[2.1E1,1.7E1,6E0,2.05E2,1.84E2,1.28E2,-3.1702328E-1,-4.3234926E-2,2.0633201E-1,4.8686248E-1,3.5176087E-2,1.6828919E-2,-2.2458434E-1],"split_indices":[2,2,1,0,0,0,0,0,0,0,0,0,0],"split_type":[0,0,0,0,0,0,0,0,0,0,0,0,0],"sum_hessian":[1.33E2,1.18E2,1.5E1,9.8E1,2E1,1.2E1,3E0,9.1E1,7E0,9E0,1.1E1,5E0,7E0],"tree_param":{"num_deleted":"0","num_feature":"3","num_nodes":"13","size_leaf_vector":"1"}},{"base_weights":[1.1930608E-3,-1.9528558E0,8.8365394E-1,-1.2893656E0,-3.1877387E0,6.214321E0,-4.7856376E-1,-1.1964687E-1,-2.912972E-2,-1.0854139E-1,-2.2920063E-1,5.4057026E-1,2.3383275E-1,-3.6242786E-1,1.0759144E-2],"categories":[],"categories_nodes":[],"categories_segments":[],"categories_sizes":[],"default_left":[0,0,0,0,0,0,0,0,0,0,0,0,0,0,0],"id":90,"left_children":[1,3,5,7,9,11,13,-1,-1,-1,-1,-1,-1,-1,-1],"loss_changes":[2.3279147E2,3.0301819E1,6.7829614E2,2.1225098E1,9.927307E0,8.3745605E1,3.5380923E2,0E0,0E0,0E0,0E0,0E0,0E0,0E0,0E0],"parents":[2147483647,0,0,1,1,2,2,3,3,4,4,5,5,6,6],"right_children":[2,4,6,8,10,12,14,-1,-1,-1,-1,-1,-1,-1,-1],"split_conditions":[7E0,5.9E1,1E1,3E0,3E0,2E0,1.1E1,-1.1964687E-1,-2.912972E-2,-1.0854139E-1,-2.2920063E-1,5.4057026E-1,2.3383275E-1,-3.6242786E-1,1.0759144E-2],"split_indices":[2,0,2,1,2,1,2,0,0,0,0,0,0,0,0],"split_type":[0,0,0,0,0,0,0,0,0,0,0,0,0,0,0],"sum_hessian":[1.33E2,4.1E1,9.2E1,2.8E1,1.3E1,1.8E1,7.4E1,1E1,1.8E1,9E0,4E0,3E0,1.5E1,6E0,6.8E1],"tree_param":{"num_deleted":"0","num_feature":"3","num_nodes":"15","size_leaf_vector":"1"}},{"base_weights":[6.588039E-4,4.797189E-1,-3.5623918E0,-4.418628E-1,4.8014746E0,-2.504246E0,-3.055384E-1,1.40077835E-2,-1.490831E-1,4.1373044E-1,-3.7438627E-2,1.5679425E-2,-2.1522956E-1],"categories":[],"categories_nodes":[],"categories_segments":[],"categories_sizes":[],"default_left":[0,0,0,0,0,0,0,0,0,0,0,0,0],"id":91,"left_children":[1,3,5,7,9,11,-1,-1,-1,-1,-1,-1,-1],"loss_changes":[2.304356E2,4.760808E2,2.784198E1,1.8237971E2,4.110077E2,6.7299835E1,0E0,0E0,0E0,0E0,0E0,0E0,0E0],"parents":[2147483647,0,0,1,1,2,2,3,3,4,4,5,5],"right_children":[2,4,6,8,10,12,-1,-1,-1,-1,-1,-1,-1],"split_conditions":[2.1E1,1.7E1,6E0,1.3E1,5E0,1.28E2,-3.055384E-1,1.40077835E-2,-1.490831E-1,4.1373044E-1,-3.7438627E-2,1.5679425E-2,-2.1522956E-1],"split_indices":[2,2,1,2,1,0,0,0,0,0,0,0,0],"split_type":[0,0,0,0,0,0,0,0,0,0,0,0,0],"sum_hessian":[1.33E2,1.18E2,1.5E1,9.8E1,2E1,1.2E1,3E0,7.7E1,2.1E1,1.2E1,8E0,5E0,7E0],"tree_param":{"num_deleted":"0","num_feature":"3","num_nodes":"13","size_leaf_vector":"1"}},{"base_weights":[-1.343172E-3,-2.1049032E0,7.6360136E-1,-6.61328E-1,-2.7136233E0,4.3795033E0,-4.518806E-1,-1.0214811E-1,1.3063402E-1,-6.471624E-2,-1.5018658E-1,-2.2880554E-2,2.965549E-1,-3.4749562E-1,1.0694449E-2],"categories":[],"categories_nodes":[],"categories_segments":[],"categories_sizes":[],"default_left":[0,0,0,0,0,0,0,0,0,0,0,0,0,0,0],"id":92,"left_children":[1,3,5,7,9,11,13,-1,-1,-1,-1,-1,-1,-1,-1],"loss_changes":[2.1722763E2,2.9839798E1,4.370903E2,5.961938E1,6.40596E0,1.9034515E2,3.2595087E2,0E0,0E0,0E0,0E0,0E0,0E0,0E0,0E0],"parents":[2147483647,0,0,1,1,2,2,3,3,4,4,5,5,6,6],"right_children":[2,4,6,8,10,12,14,-1,-1,-1,-1,-1,-1,-1,-1],"split_conditions":[6E0,5E1,1E1,5E0,2E0,6E1,1.1E1,-1.0214811E-1,1.3063402E-1,-6.471624E-2,-1.5018658E-1,-2.2880554E-2,2.965549E-1,-3.4749562E-1,1.0694449E-2],"split_indices":[2,0,2,1,1,0,2,0,0,0,0,0,0,0,0],"split_type":[0,0,0,0,0,0,0,0,0,0,0,0,0,0,0],"sum_hessian":[1.33E2,3.5E1,9.8E1,1.1E1,2.4E1,2.4E1,7.4E1,8E0,3E0,5E0,1.9E1,6E0,1.8E1,6E0,6.8E1],"tree_param":{"num_deleted":"0","num_feature":"3","num_nodes":"15","size_leaf_vector":"1"}},{"base_weights":[-3.1391259E-3,4.570864E-1,-3.4258704E0,-4.1978374E-1,4.5691366E0,-2.768364E-2,-4.046095E0,1.354609E-2,-1.4247839E-1,5.7399386E-1,8.460193E-2,-2.7476785E-1,-7.196986E-2],"categories":[],"categories_nodes":[],"categories_segments":[],"categories_sizes":[],"default_left":[0,0,0,0,0,0,0,0,0,0,0,0,0],"id":93,"left_children":[1,3,5,7,9,-1,11,-1,-1,-1,-1,-1,-1],"loss_changes":[2.1264651E2,4.3100043E2,2.6262314E1,1.6692029E2,3.9811603E2,0E0,4.1201218E1,0E0,0E0,0E0,0E0,0E0,0E0],"parents":[2147483647,0,0,1,1,2,2,3,3,4,4,6,6],"right_children":[2,4,6,8,10,-1,12,-1,-1,-1,-1,-1,-1],"split_conditions":[2.1E1,1.7E1,1.19E2,1.3E1,1.49E2,-2.768364E-2,1.46E2,1.354609E-2,-1.4247839E-1,5.7399386E-1,8.460193E-2,-2.7476785E-1,-7.196986E-2],"split_indices":[2,2,0,2,0,0,0,0,0,0,0,0,0],"split_type":[0,0,0,0,0,0,0,0,0,0,0,0,0],"sum_hessian":[1.33E2,1.18E2,1.5E1,9.8E1,2E1,3E0,1.2E1,7.7E1,2.1E1,5E0,1.5E1,7E0,5E0],"tree_param":{"num_deleted":"0","num_feature":"3","num_nodes":"13","size_leaf_vector":"1"}},{"base_weights":[-1.8247348E-3,-2.0180047E0,7.3135006E-1,-6.3830376E-1,-2.599541E0,4.158468E0,-4.2077383E-1,-9.821015E-2,1.2522726E-1,-1.8780762E-1,-1.0612903E-1,-2.248061E-2,2.8186575E-1,-3.3318394E-1,1.0933127E-2],"categories":[],"categories_nodes":[],"categories_segments":[],"categories_sizes":[],"default_left":[0,0,0,0,0,0,0,0,0,0,0,0,0,0,0],"id":94,"left_children":[1,3,5,7,9,11,13,-1,-1,-1,-1,-1,-1,-1,-1],"loss_changes":[1.9955634E2,2.7225159E1,3.926477E2,5.492464E1,5.8187256E0,1.7290073E2,3.008526E2,0E0,0E0,0E0,0E0,0E0,0E0,0E0,0E0],"parents":[2147483647,0,0,1,1,2,2,3,3,4,4,5,5,6,6],"right_children":[2,4,6,8,10,12,14,-1,-1,-1,-1,-1,-1,-1,-1],"split_conditions":[6E0,5E1,1E1,5E0,5.5E1,6E1,1.1E1,-9.821015E-2,1.2522726E-1,-1.8780762E-1,-1.0612903E-1,-2.248061E-2,2.8186575E-1,-3.3318394E-1,1.0933127E-2],"split_indices":[2,0,2,1,0,0,2,0,0,0,0,0,0,0,0],"split_type":[0,0,0,0,0,0,0,0,0,0,0,0,0,0,0],"sum_hessian":[1.33E2,3.5E1,9.8E1,1.1E1,2.4E1,2.4E1,7.4E1,8E0,3E0,5E0,1.9E1,6E0,1.8E1,6E0,6.8E1],"tree_param":{"num_deleted":"0","num_feature":"3","num_nodes":"15","size_leaf_vector":"1"}},{"base_weights":[-4.1967365E-3,4.373898E-1,-3.2882342E0,-3.994425E-1,4.361628E0,-2.26114E0,-2.902116E-1,-3.4085732E-2,2.5218078E-1,3.840855E-1,-4.5933533E-2,2.1454748E-2,-1.998087E-1],"categories":[],"categories_nodes":[],"categories_segments":[],"categories_sizes":[],"default_left":[0,0,0,0,0,0,0,0,0,0,0,0,0],"id":95,"left_children":[1,3,5,7,9,11,-1,-1,-1,-1,-1,-1,-1],"loss_changes":[1.9576326E2,3.9252982E2,2.8222473E1,1.555442E2,3.7520844E2,6.2394165E1,0E0,0E0,0E0,0E0,0E0,0E0,0E0],"parents":[2147483647,0,0,1,1,2,2,3,3,4,4,5,5],"right_children":[2,4,6,8,10,12,-1,-1,-1,-1,-1,-1,-1],"split_conditions":[2.1E1,1.7E1,6E0,2.15E2,5E0,1.28E2,-2.902116E-1,-3.4085732E-2,2.5218078E-1,3.840855E-1,-4.5933533E-2,2.1454748E-2,-1.998087E-1],"split_indices":[2,2,1,0,1,0,0,0,0,0,0,0,0],"split_type":[0,0,0,0,0,0,0,0,0,0,0,0,0],"sum_hessian":[1.33E2,1.18E2,1.5E1,9.8E1,2E1,1.2E1,3E0,9.4E1,4E0,1.2E1,8E0,5E0,7E0],"tree_param":{"num_deleted":"0","num_feature":"3","num_nodes":"13","size_leaf_vector":"1"}},{"base_weights":[-3.331398E-3,3.448512E-1,-3.927996E0,-1.6880388E0,1.3693877E0,-1.5203438E0,-3.8806507E-1,-5.3789794E-2,-1.4178412E-1,2.686225E-1,8.909725E-3,1.4310303E-2,-1.6992226E-1],"categories":[],"categories_nodes":[],"categories_segments":[],"categories_sizes":[],"default_left":[0,0,0,0,0,0,0,0,0,0,0,0,0],"id":96,"left_children":[1,3,5,7,9,11,-1,-1,-1,-1,-1,-1,-1],"loss_changes":[1.8446556E2,2.6057507E2,8.972208E1,2.6460121E1,3.9482147E2,2.8115723E1,0E0,0E0,0E0,0E0,0E0,0E0,0E0],"parents":[2147483647,0,0,1,1,2,2,3,3,4,4,5,5],"right_children":[2,4,6,8,10,12,-1,-1,-1,-1,-1,-1,-1],"split_conditions":[2.2E1,7E0,1.28E2,5.9E1,1E1,5E0,-3.8806507E-1,-5.3789794E-2,-1.4178412E-1,2.686225E-1,8.909725E-3,1.4310303E-2,-1.6992226E-1],"split_indices":[2,2,0,0,2,1,0,0,0,0,0,0,0],"split_type":[0,0,0,0,0,0,0,0,0,0,0,0,0],"sum_hessian":[1.33E2,1.23E2,1E1,4.1E1,8.2E1,7E0,3E0,2.8E1,1.3E1,1.8E1,6.4E1,4E0,3E0],"tree_param":{"num_deleted":"0","num_feature":"3","num_nodes":"13","size_leaf_vector":"1"}},{"base_weights":[-6.610244E-3,3.2827002E-1,-3.7810233E0,-5.7086927E-1,2.5420237E0,-1.4637794E0,-3.7351274E-1,1.295953E-2,-2.959343E-1,2.3877838E-1,-2.7418971E-2,1.3737793E-2,-1.6355018E-1],"categories":[],"categories_nodes":[],"categories_segments":[],"categories_sizes":[],"default_left":[0,0,0,0,0,0,0,0,0,0,0,0,0],"id":97,"left_children":[1,3,5,7,9,11,-1,-1,-1,-1,-1,-1,-1],"loss_changes":[1.7061404E2,2.482698E2,8.310252E1,3.9660577E2,2.5111064E2,2.6034113E1,0E0,0E0,0E0,0E0,0E0,0E0,0E0],"parents":[2147483647,0,0,1,1,2,2,3,3,4,4,5,5],"right_children":[2,4,6,8,10,12,-1,-1,-1,-1,-1,-1,-1],"split_conditions":[2.2E1,1.5E1,1.28E2,1.3E1,1.84E2,5E0,-3.7351274E-1,1.295953E-2,-2.959343E-1,2.3877838E-1,-2.7418971E-2,1.3737793E-2,-1.6355018E-1],"split_indices":[2,2,0,2,0,1,0,0,0,0,0,0,0],"split_type":[0,0,0,0,0,0,0,0,0,0,0,0,0],"sum_hessian":[1.33E2,1.23E2,1E1,8.8E1,3.5E1,7E0,3E0,7.7E1,1.1E1,2E1,1.5E1,4E0,3E0],"tree_param":{"num_deleted":"0","num_feature":"3","num_nodes":"13","size_leaf_vector":"1"}},{"base_weights":[-1.0718815E-2,-1.8223522E0,6.481652E-1,-5.354643E-1,-2.3671644E0,3.7813346E0,-4.0486673E-1,-9.051564E-2,1.2334056E-1,-1.7686072E-1,-9.488956E-2,1.1865047E-1,4.4700167E-1,-3.224701E-1,1.071073E-2],"categories":[],"categories_nodes":[],"categories_segments":[],"categories_sizes":[],"default_left":[0,0,0,0,0,0,0,0,0,0,0,0,0,0,0],"id":98,"left_children":[1,3,5,7,9,11,13,-1,-1,-1,-1,-1,-1,-1,-1],"loss_changes":[1.6113115E2,2.3972488E1,3.2816437E2,5.039506E1,7.016861E0,1.6041333E2,2.8203595E2,0E0,0E0,0E0,0E0,0E0,0E0,0E0,0E0],"parents":[2147483647,0,0,1,1,2,2,3,3,4,4,5,5,6,6],"right_children":[2,4,6,8,10,12,14,-1,-1,-1,-1,-1,-1,-1,-1],"split_conditions":[6E0,5E1,1E1,5E0,5.5E1,1.97E2,1.1E1,